\data\
ngram 1=888
ngram 2=1163
ngram 3=1059
ngram 4=941

\1-grams:
-1.365280	的	-3.651422
-2.048163	给	-3.037169
-2.135313	在	-2.951177
-2.244457	打开	-2.843237
-2.311404	助手	-2.776394
-2.311404	月光	-2.776749
-2.311404	语音	-2.776749
-2.311404	为	-2.776394
-2.311404	是	-2.776749
-2.311404	你好	-2.776749
-2.311404	蓝精灵	-2.725553
-2.311404	宝盒	-2.724753
-2.390585	芝麻开门	-2.694147
-2.390585	与	-2.697357
-2.390585	急湍	-2.645316
-2.390585	和	-2.697357
-2.487495	我	-2.601729
-2.487495	瓮	-2.601729
-2.487495	湍	-2.551418
-2.487495	搜索	-2.601729
-2.487495	打电话	-2.547820
-2.487495	从	-2.601729
-2.612434	张	-2.477505
-2.612434	以	-2.477505
-2.612434	叶	-2.477505
-2.612434	想听	-2.477505
-2.612434	发短信	-2.474662
-2.612434	段	-2.477505
-2.612434	等	-2.476086
-2.612434	到	-2.477505
-2.788525	中有	-2.302489
-2.788525	中	-2.251867
-2.788525	余	-2.302489
-2.788525	牖	-2.301780
-2.788525	有的	-2.302489
-2.788525	有	-2.302489
-2.788525	由	-2.302489
-2.788525	用	-2.302489
-2.788525	音量	-2.302135
-2.788525	一样	-2.283682
-2.788525	遥控器	-2.302489
-2.788525	形容	-2.302135
-2.788525	鲜卑	-2.302489
-2.788525	天气	-2.252265
-2.788525	他的	-2.302489
-2.788525	水	-2.302489
-2.788525	市	-2.302489
-2.788525	室	-2.283682
-2.788525	设置	-2.302489
-2.788525	取	-2.302489
-2.788525	蓬	-2.302489
-2.788525	喷云吐雾	-2.250273
-2.788525	能	-2.302135
-2.788525	旅游	-2.301426
-2.788525	龙	-2.301426
-2.788525	了	-2.302489
-2.788525	锦	-2.251469
-2.788525	今天	-2.283682
-2.788525	鸡	-2.302489
-2.788525	或	-2.302489
-2.788525	户	-2.301780
-2.788525	后	-2.251867
-2.788525	旱涝	-2.302489
-2.788525	阁	-2.302489
-2.788525	发簪	-2.300715
-2.788525	而	-2.302489
-2.788525	刺史	-2.302489
-2.788525	长	-2.301426
-2.788525	查看	-2.302135
-2.788525	不幸	-2.302489
-2.788525	被	-2.302489
-2.788525	帮	-2.302489
-3.089556	坐垫	-2.003968
-3.089556	做	-2.003968
-3.089556	昨	-2.003968
-3.089556	最近	-1.985177
-3.089556	祖居	-2.003968
-3.089556	祖	-2.003968
-3.089556	走到	-2.003968
-3.089556	邹	-2.003614
-3.089556	自古	-2.003968
-3.089556	梓	-2.002906
-3.089556	子婴	-2.002196
-3.089556	缀	-2.003968
-3.089556	追逐	-2.003968
-3.089556	壮丽	-2.003968
-3.089556	专家	-2.003968
-3.089556	主要领导	-2.003968
-3.089556	主	-2.003968
-3.089556	竹子	-1.953390
-3.089556	竹影	-2.003968
-3.089556	猪鬃	-2.003968
-3.089556	朱	-2.003968
-3.089556	州	-2.003614
-3.089556	众多	-1.985177
-3.089556	种了	-2.003968
-3.089556	忠义	-1.985177
-3.089556	忠孝	-2.003968
-3.089556	中卫	-2.003968
-3.089556	中特	-2.003614
-3.089556	中盘	-2.003968
-3.089556	中南海	-2.003968
-3.089556	中国	-2.003968
-3.089556	至	-2.003968
-3.089556	帜	-2.003968
-3.089556	指挥	-1.953390
-3.089556	指法	-2.003968
-3.089556	只需要	-2.003968
-3.089556	只是	-2.003968
-3.089556	职大	-2.003968
-3.089556	执白	-2.003968
-3.089556	侄儿	-2.003968
-3.089556	知道	-1.953390
-3.089556	之人	-1.985177
-3.089556	正阳门	-2.002906
-3.089556	正式	-2.003968
-3.089556	正巧	-2.002196
-3.089556	针线	-1.953390
-3.089556	斟茶	-2.003968
-3.089556	这是	-2.003968
-3.089556	这个	-2.003614
-3.089556	这幅	-2.003968
-3.089556	这	-2.003968
-3.089556	赵子龙	-2.003968
-3.089556	兆示	-2.003614
-3.089556	找到	-2.003968
-3.089556	朝	-2.003968
-3.089556	张学友	-2.003968
-3.089556	张信哲	-2.002906
-3.089556	张廷	-2.003968
-3.089556	张力	-2.003968
-3.089556	张大民	-2.003968
-3.089556	蘸	-2.003968
-3.089556	站前	-2.003968
-3.089556	怎么	-2.003968
-3.089556	则	-2.003968
-3.089556	早市	-1.953390
-3.089556	在台湾	-2.003968
-3.089556	在内地	-2.003968
-3.089556	在建	-1.985177
-3.089556	在第	-2.003968
-3.089556	在此	-2.003968
-3.089556	再次	-2.003968
-3.089556	灾害	-2.003968
-3.089556	咋	-2.003968
-3.089556	杂技	-2.003968
-3.089556	郓城县	-2.003968
-3.089556	允诺	-2.003968
-3.089556	云和	-2.003968
-3.089556	月	-2.002551
-3.089556	园	-2.003968
-3.089556	原位	-2.003968
-3.089556	原来	-1.985177
-3.089556	原版	-2.003968
-3.089556	郁	-1.985177
-3.089556	语	-2.003968
-3.089556	逾	-2.003968
-3.089556	余党	-2.003968
-3.089556	于	-2.003968
-3.089556	幼稚园	-1.953390
-3.089556	又	-2.003614
-3.089556	有着	-2.003968
-3.089556	有勇无谋	-1.985177
-3.089556	游鱼	-2.003968
-3.089556	尤	-2.003968
-3.089556	用手	-2.003968
-3.089556	永信	-2.002551
-3.089556	永葆	-2.003968
-3.089556	永	-2.003968
-3.089556	勇猛	-2.003968
-3.089556	影片	-2.003968
-3.089556	影迷	-2.003968
-3.089556	英军	-2.003968
-3.089556	缨	-1.953390
-3.089556	银屏	-2.003968
-3.089556	银	-2.003968
-3.089556	阴道	-2.003968
-3.089556	阴曹	-2.003968
-3.089556	因为	-2.003968
-3.089556	因公	-2.003968
-3.089556	译	-2.003968
-3.089556	易于	-2.003968
-3.089556	易地	-2.003968
-3.089556	弈	-2.003968
-3.089556	移植	-2.003968
-3.089556	衣裳	-1.953390
-3.089556	一株	-2.003968
-3.089556	一周	-2.003614
-3.089556	一张	-2.003968
-3.089556	一夜	-2.003968
-3.089556	一事	-1.953390
-3.089556	一名	-2.003968
-3.089556	一介	-2.003968
-3.089556	一股	-2.003968
-3.089556	一个	-2.003614
-3.089556	一带	-1.953390
-3.089556	一般	-2.003968
-3.089556	页	-2.003968
-3.089556	也是	-2.003968
-3.089556	要做	-2.003260
-3.089556	要像	-2.003968
-3.089556	要比	-2.003968
-3.089556	阳世	-1.953390
-3.089556	杨家	-2.003968
-3.089556	杨	-2.003968
-3.089556	燕山	-2.003968
-3.089556	烟台	-2.003968
-3.089556	烟	-1.953390
-3.089556	雅	-2.003968
-3.089556	讯	-2.003614
-3.089556	雪山	-2.003968
-3.089556	玄	-2.003968
-3.089556	漩	-2.002551
-3.089556	轩辕	-2.003614
-3.089556	续	-2.003968
-3.089556	徐浩	-2.003968
-3.089556	袖口	-2.003614
-3.089556	熊	-2.003614
-3.089556	信息	-1.953390
-3.089556	信	-2.003968
-3.089556	心悦	-1.953390
-3.089556	心仪	-2.003968
-3.089556	心田	-1.953390
-3.089556	孝悌	-1.953390
-3.089556	小张	-2.002906
-3.089556	小姐	-2.003968
-3.089556	小将	-2.003968
-3.089556	小工	-1.953390
-3.089556	向来	-2.003260
-3.089556	像	-2.003968
-3.089556	响水	-2.003968
-3.089556	镶制	-1.953390
-3.089556	相识	-1.953390
-3.089556	湘菜	-1.953390
-3.089556	乡	-2.003968
-3.089556	线上	-2.003968
-3.089556	线	-2.003968
-3.089556	现场	-1.953390
-3.089556	县县	-2.003968
-3.089556	县	-1.953390
-3.089556	弦	-2.003968
-3.089556	先生	-1.985177
-3.089556	先	-2.003614
-3.089556	下联	-2.002196
-3.089556	下官	-2.003968
-3.089556	下	-1.953390
-3.089556	西山区	-2.003968
-3.089556	西湖	-2.003968
-3.089556	犀牛	-2.003968
-3.089556	昔日	-2.003968
-3.089556	物产	-2.003968
-3.089556	武后	-2.003968
-3.089556	武夫	-1.953390
-3.089556	武	-2.003968
-3.089556	吾友	-2.003968
-3.089556	巫	-2.003968
-3.089556	我与	-2.003968
-3.089556	我想吃	-2.003968
-3.089556	瓮中捉鳖	-2.003968
-3.089556	文昌	-2.003968
-3.089556	温尼	-2.003968
-3.089556	魏	-2.003968
-3.089556	未	-2.003968
-3.089556	卫	-2.003968
-3.089556	位置	-1.953390
-3.089556	位于	-2.003968
-3.089556	伪军	-2.003968
-3.089556	韦恩	-2.003968
-3.089556	违拗	-2.003968
-3.089556	为核心	-1.985177
-3.089556	为父	-2.003968
-3.089556	威震天下	-1.953390
-3.089556	旺盛	-1.953390
-3.089556	王五	-2.003968
-3.089556	王	-2.003968
-3.089556	万宝龙	-2.003968
-3.089556	湾	-2.003968
-3.089556	脱下	-1.985177
-3.089556	托	-2.003968
-3.089556	腿	-2.003968
-3.089556	吐絮	-1.953390
-3.089556	涂在	-2.003968
-3.089556	屠夫	-2.003968
-3.089556	图上	-1.953390
-3.089556	图吧	-2.003968
-3.089556	头发	-2.003968
-3.089556	偷着乐	-2.003968
-3.089556	同船	-1.985177
-3.089556	停	-2.003968
-3.089556	亭	-1.985177
-3.089556	听雨	-2.003614
-3.089556	铁索桥	-1.953390
-3.089556	铁算盘	-1.953390
-3.089556	铁观音	-2.003968
-3.089556	铁	-2.003968
-3.089556	田林	-2.003968
-3.089556	天津市	-1.985177
-3.089556	天津	-2.003968
-3.089556	天湖	-2.003968
-3.089556	套现	-2.003968
-3.089556	淘宝网	-1.953390
-3.089556	唐山	-2.003968
-3.089556	唐	-2.003968
-3.089556	坦帕	-2.003968
-3.089556	弹药罪	-2.002551
-3.089556	踏	-2.003968
-3.089556	它	-2.003968
-3.089556	她	-2.003968
-3.089556	他到	-2.003968
-3.089556	所列	-2.003968
-3.089556	所具	-2.003614
-3.089556	所部	-2.003968
-3.089556	损坏	-2.003968
-3.089556	孙	-2.003968
-3.089556	碎	-2.003614
-3.089556	诉至	-2.003968
-3.089556	酥脆	-2.003614
-3.089556	苏州	-2.003260
-3.089556	搜狐新闻	-1.953390
-3.089556	搜狗	-2.003968
-3.089556	送丧	-1.953390
-3.089556	送	-2.003968
-3.089556	宋	-2.003968
-3.089556	四亿	-1.953390
-3.089556	嗣	-2.003968
-3.089556	斯坦	-2.003968
-3.089556	思想	-2.003968
-3.089556	思南县	-2.003968
-3.089556	思聪	-2.000417
-3.089556	说服	-2.003968
-3.089556	说法	-2.003968
-3.089556	顺着	-2.003968
-3.089556	帅	-2.001129
-3.089556	熟悉	-2.003968
-3.089556	梳头	-1.953390
-3.089556	叔侄	-2.003968
-3.089556	叔	-2.002906
-3.089556	寿宴	-1.953390
-3.089556	是个	-2.003968
-3.089556	是否	-2.003614
-3.089556	是多少	-1.953390
-3.089556	市场	-2.002551
-3.089556	室友	-2.003968
-3.089556	势力	-2.003968
-3.089556	使得	-2.003968
-3.089556	石家庄	-2.003968
-3.089556	时	-2.003968
-3.089556	十足	-1.953390
-3.089556	十一	-2.003614
-3.089556	十七	-2.003968
-3.089556	十佳	-2.003968
-3.089556	十八掌	-2.003968
-3.089556	师傅	-2.000417
-3.089556	失去了	-2.003968
-3.089556	失落	-1.985177
-3.089556	失禁	-1.985177
-3.089556	胜景	-1.953390
-3.089556	胜	-2.003968
-3.089556	省会	-2.003968
-3.089556	生俘	-2.003968
-3.089556	升降	-2.003968
-3.089556	肾	-2.003968
-3.089556	神	-2.003968
-3.089556	身亡	-1.953390
-3.089556	申奥	-2.003968
-3.089556	伸冤	-1.953390
-3.089556	设计	-1.985177
-3.089556	社区卫生	-2.003968
-3.089556	邵	-2.003968
-3.089556	上任	-2.003968
-3.089556	上佳	-2.003968
-3.089556	上达	-2.003968
-3.089556	上	-1.953390
-3.089556	衫裤	-2.003968
-3.089556	沙发	-1.953390
-3.089556	沙尘	-1.953390
-3.089556	僧	-2.003968
-3.089556	三	-2.003968
-3.089556	洒	-2.003260
-3.089556	瑞士	-2.003968
-3.089556	软软	-1.985177
-3.089556	乳儿	-1.953390
-3.089556	如何	-1.953390
-3.089556	如飞	-2.001129
-3.089556	如	-2.003968
-3.089556	日升	-1.985177
-3.089556	日	-1.985177
-3.089556	仁爱	-2.003968
-3.089556	人像	-2.003968
-3.089556	人氏	-1.953390
-3.089556	人去	-2.003968
-3.089556	人对	-2.003968
-3.089556	人	-2.003260
-3.089556	热水	-1.953390
-3.089556	绕	-2.003968
-3.089556	染病	-2.003968
-3.089556	群众	-2.003968
-3.089556	阙	-2.003968
-3.089556	泉眼	-2.003968
-3.089556	泉边	-2.003968
-3.089556	全年	-2.003968
-3.089556	去	-2.003968
-3.089556	球	-2.003968
-3.089556	邱爱华	-2.002551
-3.089556	庆	-1.953390
-3.089556	晴	-2.003968
-3.089556	情深	-2.003968
-3.089556	情商	-2.003968
-3.089556	青色	-1.953390
-3.089556	青翠欲滴	-1.985177
-3.089556	清汤	-2.003968
-3.089556	清风	-2.003968
-3.089556	秦皇岛	-1.953390
-3.089556	强烈	-1.985177
-3.089556	墙上	-1.985177
-3.089556	歉	-1.985177
-3.089556	前	-2.003968
-3.089556	阡	-2.003968
-3.089556	签约	-2.003614
-3.089556	千千	-2.003968
-3.089556	气	-2.003968
-3.089556	起点	-1.953390
-3.089556	绮丽	-2.003968
-3.089556	旗	-1.953390
-3.089556	奇	-2.003968
-3.089556	其	-2.003968
-3.089556	剖	-2.003968
-3.089556	萍水相逢	-1.953390
-3.089556	平	-2.003968
-3.089556	屏幕上	-2.003968
-3.089556	频发	-1.985177
-3.089556	贫嘴	-2.003968
-3.089556	拼贴	-2.003968
-3.089556	噼啪	-2.003968
-3.089556	匹	-2.003968
-3.089556	佩玉	-2.003968
-3.089556	畔	-2.003968
-3.089556	判官	-2.003968
-3.089556	派兵	-2.003968
-3.089556	拍摄	-1.985177
-3.089556	偶尔	-2.003968
-3.089556	女子	-2.002196
-3.089556	女士	-2.003614
-3.089556	怒骂	-2.002551
-3.089556	浓积云	-2.003614
-3.089556	农机局	-2.003968
-3.089556	农	-2.003968
-3.089556	牛肉丸	-1.953390
-3.089556	牛	-2.003968
-3.089556	宁儿	-2.003968
-3.089556	涅槃	-2.003968
-3.089556	尿布	-1.953390
-3.089556	年度	-2.003968
-3.089556	年	-2.003968
-3.089556	拈香	-1.953390
-3.089556	你的	-2.003968
-3.089556	嫩黄	-1.985177
-3.089556	内	-2.003968
-3.089556	脑门	-1.953390
-3.089556	囊空如洗	-1.953390
-3.089556	难道	-2.003968
-3.089556	南投县	-2.003968
-3.089556	南京	-1.985177
-3.089556	南郊	-1.953390
-3.089556	南	-2.003968
-3.089556	那样	-2.003968
-3.089556	那么	-2.003968
-3.089556	那段	-2.003968
-3.089556	目的地	-1.953390
-3.089556	木梳	-2.003614
-3.089556	慕容	-2.003614
-3.089556	牡丹	-2.003614
-3.089556	默默地	-2.003968
-3.089556	莫	-2.003968
-3.089556	茉莉	-2.003968
-3.089556	命令	-2.003968
-3.089556	明天	-2.002906
-3.089556	名妓	-2.003968
-3.089556	名茶	-1.953390
-3.089556	民院	-2.003968
-3.089556	民庭	-2.003968
-3.089556	民间	-2.003968
-3.089556	棉毛	-2.003968
-3.089556	棉袄	-2.003968
-3.089556	密码	-1.953390
-3.089556	米原康正	-2.003968
-3.089556	迷	-2.003968
-3.089556	梦露	-1.985177
-3.089556	孟	-2.003968
-3.089556	门柱	-1.953390
-3.089556	门楼	-2.003968
-3.089556	美国大片	-1.953390
-3.089556	美芳	-2.003968
-3.089556	没事	-2.003968
-3.089556	茂密	-2.003968
-3.089556	茂	-2.003968
-3.089556	冒着	-2.003968
-3.089556	毛刷	-2.003968
-3.089556	毛	-2.003968
-3.089556	曼尼	-2.003968
-3.089556	马蹄	-2.003968
-3.089556	马赛克	-2.003968
-3.089556	吗	-2.003614
-3.089556	率领	-2.003968
-3.089556	洛水	-2.003968
-3.089556	罗	-2.003968
-3.089556	伦斯	-2.003968
-3.089556	掠	-2.003968
-3.089556	陆	-2.003968
-3.089556	路口	-1.953390
-3.089556	泸定县	-2.003968
-3.089556	泸定	-2.003968
-3.089556	露出	-1.953390
-3.089556	蝼蚁	-2.003968
-3.089556	楼上	-2.003968
-3.089556	楼	-2.003968
-3.089556	龙井	-2.003968
-3.089556	龙湖	-2.003968
-3.089556	六和	-1.985177
-3.089556	柳	-2.003968
-3.089556	刘若英	-1.985177
-3.089556	另外	-2.003968
-3.089556	灵魂	-1.953390
-3.089556	凌霄城	-2.003968
-3.089556	林草	-2.003968
-3.089556	林	-2.003968
-3.089556	聊斋	-2.003968
-3.089556	两名	-2.003968
-3.089556	两轮	-2.003614
-3.089556	两颗	-2.003968
-3.089556	两侧	-2.002196
-3.089556	梁	-2.003614
-3.089556	凉意	-2.002906
-3.089556	怜	-2.003968
-3.089556	立誓	-2.003968
-3.089556	立	-2.003614
-3.089556	历史	-2.003968
-3.089556	力	-2.003968
-3.089556	里诺	-2.003968
-3.089556	李永祥	-2.003968
-3.089556	李祥	-2.003968
-3.089556	李宁玉	-1.953390
-3.089556	李隆基	-2.003968
-3.089556	李	-2.003968
-3.089556	老赵	-2.002906
-3.089556	老乡	-2.003968
-3.089556	老人	-2.003968
-3.089556	老将	-2.003968
-3.089556	岚	-2.003968
-3.089556	来讲	-2.003968
-3.089556	辣椒酱	-2.003968
-3.089556	拉	-2.003968
-3.089556	喇叭	-2.003968
-3.089556	块	-1.953390
-3.089556	酷	-2.003968
-3.089556	裤脚	-2.003968
-3.089556	口感	-2.003968
-3.089556	空山	-2.003968
-3.089556	克林	-2.003968
-3.089556	可以	-2.003968
-3.089556	可能	-2.003968
-3.089556	科威尔	-1.985177
-3.089556	科科长	-2.003968
-3.089556	靠前	-2.003968
-3.089556	考究	-1.985177
-3.089556	看着她	-2.003968
-3.089556	堪比	-2.003968
-3.089556	开沟	-2.003968
-3.089556	开办	-2.003968
-3.089556	军机处	-2.003968
-3.089556	军功	-2.003968
-3.089556	绝对	-2.003968
-3.089556	爵	-2.003968
-3.089556	捐助	-2.003968
-3.089556	咀嚼	-1.953390
-3.089556	局长	-2.003968
-3.089556	局部	-2.003968
-3.089556	居心叵测	-1.985177
-3.089556	救济款	-2.003968
-3.089556	就	-2.003968
-3.089556	酒店	-1.953390
-3.089556	静音	-1.953390
-3.089556	静谧	-2.003968
-3.089556	境内	-2.003968
-3.089556	景	-2.003968
-3.089556	经典老歌	-1.953390
-3.089556	经典	-2.003968
-3.089556	经	-2.003968
-3.089556	精心	-2.003968
-3.089556	进	-2.003968
-3.089556	金簪	-2.003968
-3.089556	金花	-2.003968
-3.089556	金	-2.003968
-3.089556	解闷	-1.953390
-3.089556	节目	-2.001841
-3.089556	结	-2.003968
-3.089556	接应	-2.003968
-3.089556	接	-2.003968
-3.089556	脚下	-2.003968
-3.089556	脚底	-2.003968
-3.089556	教师	-1.985177
-3.089556	降龙	-2.003968
-3.089556	蒋氏	-2.003968
-3.089556	奖	-2.003614
-3.089556	将	-2.003968
-3.089556	鉴	-2.002196
-3.089556	见到	-2.003968
-3.089556	建筑队	-2.003968
-3.089556	剑	-2.003968
-3.089556	捡到	-1.985177
-3.089556	监事	-2.003260
-3.089556	假意	-2.003968
-3.089556	假的	-2.003614
-3.089556	家村	-2.003968
-3.089556	家	-2.003968
-3.089556	加上	-2.003968
-3.089556	冀州	-2.003614
-3.089556	疾	-2.003968
-3.089556	急行军	-2.003968
-3.089556	吉他	-2.003968
-3.089556	吉	-2.003968
-3.089556	及	-2.003614
-3.089556	鸡皮	-2.003968
-3.089556	积雨	-2.003968
-3.089556	机票	-1.953390
-3.089556	机顶盒	-2.003968
-3.089556	机	-1.953390
-3.089556	击溃	-1.953390
-3.089556	或者	-2.003968
-3.089556	火箭	-2.003968
-3.089556	火车票	-1.953390
-3.089556	活人	-2.003614
-3.089556	活	-2.003968
-3.089556	惠	-2.003968
-3.089556	会议	-1.953390
-3.089556	回良玉	-2.003260
-3.089556	回	-2.003968
-3.089556	黄杨	-2.003968
-3.089556	黄	-2.003968
-3.089556	蝗虫	-2.003968
-3.089556	皇帝	-1.953390
-3.089556	潢川县	-2.003968
-3.089556	荒谬绝伦	-1.953390
-3.089556	荒谬	-2.003968
-3.089556	换洗	-2.003968
-3.089556	欢叫	-1.953390
-3.089556	坏了	-2.003968
-3.089556	怀揣	-2.003968
-3.089556	化	-2.003968
-3.089556	划出	-2.003968
-3.089556	花鸟鱼虫	-2.003968
-3.089556	户外	-2.003968
-3.089556	互敬	-1.953390
-3.089556	胡适	-2.003968
-3.089556	胡军	-2.003968
-3.089556	胡	-2.003968
-3.089556	湖	-2.003968
-3.089556	后来	-2.002551
-3.089556	厚厚	-2.003968
-3.089556	候机厅	-2.003968
-3.089556	红楼	-2.003968
-3.089556	弘	-2.003260
-3.089556	宏恩	-2.003968
-3.089556	很轻	-2.003968
-3.089556	赫赫	-1.985177
-3.089556	河北	-1.953390
-3.089556	和睦	-2.003968
-3.089556	合影	-1.953390
-3.089556	号	-2.003968
-3.089556	毫	-2.003260
-3.089556	蒿	-2.003968
-3.089556	航母	-1.953390
-3.089556	亥	-1.985177
-3.089556	海盗	-2.003968
-3.089556	还有	-2.003614
-3.089556	果仁	-2.003968
-3.089556	涡流	-1.953390
-3.089556	贵州省	-2.003968
-3.089556	鬼魂	-2.003968
-3.089556	珪	-2.003968
-3.089556	逛	-2.003968
-3.089556	光文	-2.003968
-3.089556	管	-2.003968
-3.089556	观音庙	-2.003968
-3.089556	官邸	-2.002196
-3.089556	关于	-2.003968
-3.089556	拐弯处	-2.003968
-3.089556	乖谬	-2.003968
-3.089556	故意	-2.003968
-3.089556	古迹	-2.003968
-3.089556	古代	-2.003968
-3.089556	古村	-2.003968
-3.089556	勾	-2.003968
-3.089556	工商局	-2.003968
-3.089556	工匠	-2.003968
-3.089556	工夫	-1.953390
-3.089556	功绩	-2.003968
-3.089556	公司	-2.003968
-3.089556	公路	-2.003614
-3.089556	公交车	-1.953390
-3.089556	公	-2.003968
-3.089556	更是	-2.003968
-3.089556	更加	-2.003968
-3.089556	更改	-2.003968
-3.089556	各种	-2.003968
-3.089556	个	-2.003968
-3.089556	格力	-2.003968
-3.089556	歌	-1.953390
-3.089556	告状	-2.003968
-3.089556	高	-1.953390
-3.089556	赶到	-2.003968
-3.089556	盖	-2.001129
-3.089556	丐帮	-2.003968
-3.089556	腹	-2.003968
-3.089556	父亲	-2.003968
-3.089556	副庭长	-1.985177
-3.089556	服务站	-1.953390
-3.089556	夫妇	-2.001129
-3.089556	佛祖	-2.003968
-3.089556	凤凰	-2.003968
-3.089556	凤	-2.003968
-3.089556	风光	-2.003968
-3.089556	疯了	-2.003614
-3.089556	封堵	-1.953390
-3.089556	丰饶	-1.953390
-3.089556	丰	-2.003968
-3.089556	分娩	-2.003968
-3.089556	分局	-1.985177
-3.089556	飞驰	-1.985177
-3.089556	飞	-2.003968
-3.089556	妃	-2.003968
-3.089556	放回	-2.003968
-3.089556	放	-2.003614
-3.089556	访问	-2.003968
-3.089556	仿佛	-2.002196
-3.089556	防	-1.953390
-3.089556	芳草	-2.003968
-3.089556	泛	-2.003968
-3.089556	返回	-2.003968
-3.089556	法院	-2.003968
-3.089556	法	-2.002551
-3.089556	发现	-2.003968
-3.089556	发行	-1.953390
-3.089556	二传	-2.002196
-3.089556	二	-1.953390
-3.089556	儿	-2.003968
-3.089556	谔	-2.003614
-3.089556	夺	-2.003968
-3.089556	多台	-2.003968
-3.089556	多少	-2.003968
-3.089556	炖煮	-1.985177
-3.089556	队	-2.003968
-3.089556	段芝贵	-2.002551
-3.089556	断	-2.003968
-3.089556	度	-2.003968
-3.089556	独自	-2.003968
-3.089556	独闯	-2.003968
-3.089556	都把	-2.003968
-3.089556	电信	-2.002551
-3.089556	电	-2.003968
-3.089556	第六届	-2.003968
-3.089556	第二	-2.003968
-3.089556	帝	-2.003968
-3.089556	地图	-2.002906
-3.089556	邸	-1.953390
-3.089556	砥	-1.953390
-3.089556	滴翠	-1.985177
-3.089556	低音	-2.003968
-3.089556	低头	-2.003968
-3.089556	的人	-2.003968
-3.089556	德里克	-1.953390
-3.089556	岛	-2.003968
-3.089556	导致	-2.003968
-3.089556	导航	-1.953390
-3.089556	当过	-2.003968
-3.089556	当	-2.003968
-3.089556	淡绿	-2.003968
-3.089556	胆	-2.003968
-3.089556	丹	-1.953390
-3.089556	带	-2.003968
-3.089556	代	-2.003614
-3.089556	逮	-1.953390
-3.089556	大小便	-2.003968
-3.089556	大特写	-2.003968
-3.089556	大全	-1.953390
-3.089556	大盘走势	-2.003968
-3.089556	大理石	-2.003968
-3.089556	大恩大德	-1.953390
-3.089556	大藏	-2.003968
-3.089556	打下手	-1.953390
-3.089556	打开浏览器	-1.953390
-3.089556	打狗棒	-2.003968
-3.089556	村	-2.003968
-3.089556	崔	-2.003968
-3.089556	丛台区	-2.003968
-3.089556	辞世	-1.953390
-3.089556	椿	-2.003260
-3.089556	传闻	-1.953390
-3.089556	川	-2.003968
-3.089556	出现	-2.003968
-3.089556	出镜	-2.003968
-3.089556	抽烟	-2.003968
-3.089556	宠妃	-2.003968
-3.089556	吃了	-2.003968
-3.089556	程序	-1.985177
-3.089556	盛	-1.953390
-3.089556	成语	-1.953390
-3.089556	成	-2.003968
-3.089556	城主	-1.953390
-3.089556	城内	-1.985177
-3.089556	城北	-2.000417
-3.089556	陈	-2.003968
-3.089556	臣	-1.953390
-3.089556	彻骨	-1.985177
-3.089556	超多	-1.953390
-3.089556	场面	-2.003968
-3.089556	长龙	-2.003968
-3.089556	长安	-2.003968
-3.089556	常山	-2.003968
-3.089556	昌	-2.003968
-3.089556	产儿	-2.003968
-3.089556	禅	-2.003968
-3.089556	茶褐色	-2.003968
-3.089556	曾	-2.003968
-3.089556	草木	-2.003968
-3.089556	参加	-2.003968
-3.089556	菜田	-2.003968
-3.089556	菜	-2.002906
-3.089556	财物罪	-2.003614
-3.089556	财报	-1.953390
-3.089556	步骤	-2.003614
-3.089556	埔里	-1.953390
-3.089556	补	-2.003968
-3.089556	不是	-2.003968
-3.089556	不久	-2.003968
-3.089556	不仅	-2.003614
-3.089556	不悔	-2.003968
-3.089556	不过	-2.003968
-3.089556	不得	-2.002906
-3.089556	不变	-1.953390
-3.089556	伯格	-2.003614
-3.089556	滨海	-2.003614
-3.089556	别	-2.003968
-3.089556	表现	-1.985177
-3.089556	表厂	-1.985177
-3.089556	遍了	-2.003968
-3.089556	便	-2.003614
-3.089556	碧绿	-2.003968
-3.089556	碧	-2.003614
-3.089556	毖	-2.002196
-3.089556	毕业生	-2.003968
-3.089556	比利时	-2.003968
-3.089556	比分	-2.003968
-3.089556	本源	-2.003968
-3.089556	本	-2.003968
-3.089556	被子	-2.003968
-3.089556	被人	-2.003968
-3.089556	焙烤	-2.003614
-3.089556	北京今天	-2.003968
-3.089556	北京	-2.003968
-3.089556	宝鼎	-2.003968
-3.089556	保安	-2.003614
-3.089556	保	-2.003968
-3.089556	薄荷	-2.001129
-3.089556	扮演	-1.985177
-3.089556	半年	-2.003968
-3.089556	办公	-2.002551
-3.089556	颁赐	-2.003968
-3.089556	百度	-2.003968
-3.089556	摆下	-2.003968
-3.089556	摆	-2.003614
-3.089556	白色	-2.003614
-3.089556	爸爸	-1.953390
-3.089556	巴	-2.003968
-3.089556	八	-2.003614
-3.089556	奥组委	-2.003968
-3.089556	敖	-2.003968
-3.089556	坳	-2.003968
-3.089556	岸上	-2.003968
-3.089556	俺家	-2.003968
-3.089556	安装	-2.003968
-3.089556	安徽阜阳	-2.003968
-3.089556	蔼	-2.003968
-3.089556	埃塞克斯	-2.003968
-3.089556	哀戚	-1.985177
-5.390585	<UNK>
-99.000000	<s>	-4.063551
-0.956016	</s>

\2-grams:
-1.724358	的 天气
-1.724358	的 能	-1.705447
-1.724358	的 竹子
-1.724358	的 忠孝
-1.724358	的 侄儿
-1.724358	的 这个
-1.724358	的 英军
-1.724358	的 一周
-1.724358	的 一介
-1.724358	的 县
-1.724358	的 文昌
-1.724358	的 位置
-1.724358	的 铁
-1.724358	的 说法
-1.724358	的 叔侄
-1.724358	的 升降
-1.724358	的 沙发
-1.724358	的 三
-1.724358	的 人像
-1.724358	的 佩玉
-1.724358	的 牛肉丸
-1.724358	的 那段
-1.724358	的 慕容
-1.724358	的 民庭
-1.724358	的 棉袄
-1.724358	的 马蹄
-1.724358	的 率领
-1.724358	的 凉意
-1.724358	的 李祥
-1.724358	的 老人
-1.724358	的 酒店
-1.724358	的 节目
-1.724358	的 脚下
-1.724358	的 冀州
-1.724358	的 鸡皮
-1.724358	的 火车票
-1.724358	的 花鸟鱼虫
-1.724358	的 后来
-1.724358	的 和睦
-1.724358	的 观音庙
-1.724358	的 工匠
-1.724358	的 格力
-1.724358	的 父亲
-1.724358	的 佛祖
-1.724358	的 第六届
-1.724358	的 大理石
-1.724358	的 宠妃
-1.724358	的 常山
-1.724358	的 菜田
-1.724358	的 薄荷
-1.724358	的 八
-1.724358	的 埃塞克斯
-1.724358	的 </s>
-1.041787	给 张	-1.828951
-1.041787	给 邹
-1.041787	给 张学友
-1.041787	给 张信哲
-1.041787	给 小张
-1.041787	给 王五
-1.041787	给 老赵
-1.041787	给 建筑队
-1.041787	给 当
-1.041787	给 大小便
-1.041787	给 爸爸
-0.954725	在 他的	-1.705447
-0.954725	在 这幅
-0.954725	在 心田
-0.954725	在 泸定县
-0.954725	在 吉他
-0.954725	在 候机厅
-0.954725	在 官邸
-0.954725	在 本
-0.954725	在 颁赐
-0.544688	打开 遥控器
-0.845718	打开 图吧
-0.845718	打开 淘宝网
-0.845718	打开 搜狐新闻
-0.845718	打开 搜狗
-0.845718	打开 百度
-0.301753	助手 我	-1.879743
-0.301753	助手 发短信
-0.000723	月光 宝盒
-0.000723	语音 助手
-0.778874	为 室	-1.705447
-0.778874	为 心仪
-0.778874	为 居心叵测
-0.778874	为 皇帝
-0.778874	为 胡适
-0.778874	为 度
-0.778874	是 壮丽
-0.778874	是 种了
-0.778874	是 邱爱华
-0.778874	是 你的
-0.778874	是 美芳
-0.778874	是 被人
-0.000723	你好 蓝精灵
-0.778874	蓝精灵 今天	-1.705447
-0.477844	蓝精灵 查看
-0.778874	蓝精灵 昨
-0.778874	蓝精灵 北京今天
-0.778874	蓝精灵 </s>
-0.176814	宝盒 打开	-2.235993
-0.778874	宝盒 打开浏览器
-0.778874	宝盒 </s>
-0.222716	芝麻开门 给	-2.340412
-0.699838	芝麻开门 搜索	-1.879743
-0.699838	芝麻开门 我想吃
-0.699838	与 段	-1.828951
-0.699838	与 中国
-0.699838	与 烟台
-0.699838	与 涡流
-0.699838	与 禅
-0.699838	急湍 急湍	-1.607680
-0.222716	急湍 湍
-0.699838	急湍 </s>
-0.699838	和 张	-1.828951
-0.699838	和 老将
-0.699838	和 降龙
-0.699838	和 故意
-0.699838	和 各种
-0.126023	我 想听
-0.603144	我 捡到
-0.302114	瓮 牖
-0.603144	瓮 萍水相逢
-0.603144	瓮 城内
-0.603144	湍 蓬
-0.126023	湍 </s>
-0.603144	搜索 最近
-0.603144	搜索 莫
-0.603144	搜索 机票
-0.603144	搜索 公交车
-0.603144	打电话 给	-1.962968
-0.126023	打电话 </s>
-0.603144	从 原来
-0.603144	从 袖口
-0.603144	从 苏州
-0.603144	从 脚底
-0.478566	张 语
-0.478566	张 景
-0.478566	张 宝鼎
-0.478566	以 仁爱
-0.478566	以 马赛克
-0.478566	以 打狗棒
-0.478566	叶 祖
-0.478566	叶 失去了
-0.478566	叶 光文
-0.478566	想听 千千
-0.478566	想听 刘若英
-0.478566	想听 经典老歌
-0.001445	发短信 给	-2.340412
-0.478566	段 日升
-0.478566	段 起点
-0.478566	段 匹
-0.478566	等 与	-1.907628
-0.478566	等 主要领导
-0.478566	等 名茶
-0.478566	到 南京
-0.478566	到 静音
-0.478566	到 二
-0.303196	中有 上佳
-0.303196	中有 强烈
-0.303196	中 低音
-0.303196	中 </s>
-0.303196	余 页
-0.303196	余 怜
-0.303196	牖 蓬
-0.303196	牖 长	-1.705447
-0.303196	有的 淡绿
-0.303196	有的 大恩大德
-0.303196	有 一张
-0.303196	有 沙尘
-0.303196	由 申奥
-0.303196	由 瑞士
-0.303196	用 救济款
-0.303196	用 黄杨
-0.002166	音量 到	-1.828951
-0.303196	一样 的	-1.996050
-0.303196	一样 朝
-0.002166	遥控器 设置
-0.303196	形容 水	-1.705447
-0.303196	形容 草木
-0.303196	鲜卑 人
-0.303196	鲜卑 击溃
-0.002166	天气 </s>
-0.303196	他的 两名
-0.303196	他的 被子
-0.303196	水 绕
-0.303196	水 盛
-0.303196	市 农机局
-0.303196	市 南郊
-0.303196	室 的	-1.996050
-0.303196	室 雅
-0.002166	设置 音量
-0.303196	取 肾
-0.303196	取 胆
-0.002166	蓬 户
-0.303196	喷云吐雾 急湍	-1.907628
-0.303196	喷云吐雾 </s>
-0.303196	能 形容	-1.705447
-0.303196	能 兆示
-0.303196	旅游 搜索	-1.879743
-0.303196	旅游 公路
-0.303196	龙 打电话	-1.879743
-0.303196	龙 楼
-0.303196	了 胡
-0.303196	了 多少
-0.303196	锦 锦	-1.705447
-0.303196	锦 </s>
-0.303196	今天 的	-1.996050
-0.303196	今天 大盘走势
-0.303196	鸡 块
-0.303196	鸡 凤凰
-0.303196	或 猪鬃
-0.303196	或 裤脚
-0.002166	户 瓮	-2.003248
-0.303196	后 使得
-0.303196	后 </s>
-0.303196	旱涝 灾害
-0.303196	旱涝 丰
-0.303196	阁 主
-0.303196	阁 在第
-0.303196	发簪 是	-1.925285
-0.303196	发簪 吐絮
-0.303196	而 易于
-0.303196	而 焙烤
-0.303196	刺史 邵
-0.303196	刺史 崔
-0.303196	长 湍	-1.405498
-0.303196	长 假的
-0.303196	查看 今天	-1.705447
-0.303196	查看 十一
-0.303196	不幸 染病
-0.303196	不幸 辞世
-0.303196	被 她
-0.303196	被 公
-0.303196	帮 余党
-0.303196	帮 屠夫
-0.004321	坐垫 软软
-0.004321	做 针线
-0.004321	昨 天湖
-0.004321	最近 的	-1.996050
-0.004321	祖居 郓城县
-0.004321	祖 珪
-0.004321	走到 泉边
-0.004321	邹 锦	-1.705447
-0.004321	自古 风光
-0.004321	梓 搜索	-1.879743
-0.004321	子婴 为	-1.925285
-0.004321	缀 罗
-0.004321	追逐 轩辕
-0.004321	壮丽 考究
-0.004321	专家 韦恩
-0.004321	主要领导 靠前
-0.004321	主 陆
-0.004321	竹子 </s>
-0.004321	竹影 屏幕上
-0.004321	猪鬃 毛刷
-0.004321	朱 先
-0.004321	州 刺史	-1.705447
-0.004321	众多 的	-1.996050
-0.004321	种了 一株
-0.004321	忠义 的	-1.996050
-0.004321	忠孝 孝悌
-0.004321	中卫 可以
-0.004321	中特 有的	-1.705447
-0.004321	中盘 胜
-0.004321	中南海 为父
-0.004321	中国 奥组委
-0.004321	至 昌
-0.004321	帜 王
-0.004321	指挥 </s>
-0.004321	指法 如飞
-0.004321	只需要 默默地
-0.004321	只是 民间
-0.004321	职大 毕业生
-0.004321	执白 中盘
-0.004321	侄儿 子婴
-0.004321	知道 </s>
-0.004321	之人 的	-1.996050
-0.004321	正阳门 瓮	-1.879743
-0.004321	正式 签约
-0.004321	正巧 是	-1.925285
-0.004321	针线 </s>
-0.004321	斟茶 或者
-0.004321	这是 回良玉
-0.004321	这个 发簪	-1.705447
-0.004321	这幅 静谧
-0.004321	这 六和
-0.004321	赵子龙 出镜
-0.004321	兆示 旱涝	-1.705447
-0.004321	找到 西山区
-0.004321	朝 岸上
-0.004321	张学友 办公
-0.004321	张信哲 打电话	-1.405498
-0.004321	张廷 谔
-0.004321	张力 十足
-0.004321	张大民 那样
-0.004321	蘸 辣椒酱
-0.004321	站前 两轮
-0.004321	怎么 那么
-0.004321	则 安装
-0.004321	早市 </s>
-0.004321	在台湾 南投县
-0.004321	在内地 套现
-0.004321	在建 的	-1.996050
-0.004321	在第 十七
-0.004321	在此 开办
-0.004321	再次 将
-0.004321	灾害 频发
-0.004321	咋 原版
-0.004321	杂技 空山
-0.004321	郓城县 宋
-0.004321	允诺 捐助
-0.004321	云和 浓积云
-0.004321	月 与	-1.907628
-0.004321	园 邸
-0.004321	原位 不变
-0.004321	原来 的	-1.996050
-0.004321	原版 移植
-0.004321	郁 的	-1.996050
-0.004321	语 柳
-0.004321	逾 四亿
-0.004321	余党 于
-0.004321	于 洛水
-0.004321	幼稚园 </s>
-0.004321	又 帮	-1.705447
-0.004321	有着 厚厚
-0.004321	有勇无谋 的	-1.996050
-0.004321	游鱼 众多
-0.004321	尤 伦斯
-0.004321	用手 逮
-0.004321	永信 和	-1.907628
-0.004321	永葆 这
-0.004321	永 嗣
-0.004321	勇猛 号
-0.004321	影片 大全
-0.004321	影迷 所列
-0.004321	英军 像
-0.004321	缨 </s>
-0.004321	银屏 牡丹
-0.004321	银 毫
-0.004321	阴道 分娩
-0.004321	阴曹 判官
-0.004321	因为 另外
-0.004321	因公 未
-0.004321	译 电
-0.004321	易于 咀嚼
-0.004321	易地 补
-0.004321	弈 剑
-0.004321	移植 成
-0.004321	衣裳 </s>
-0.004321	一株 青翠欲滴
-0.004321	一周 由	-1.705447
-0.004321	一张 有着
-0.004321	一夜 急行军
-0.004321	一事 </s>
-0.004321	一名 中卫
-0.004321	一介 武夫
-0.004321	一股 彻骨
-0.004321	一个 旱涝	-1.705447
-0.004321	一带 </s>
-0.004321	一般 来讲
-0.004321	页 朱
-0.004321	也是 一个
-0.004321	要做 以	-1.828951
-0.004321	要像 贫嘴
-0.004321	要比 剖
-0.004321	阳世 </s>
-0.004321	杨家 坳
-0.004321	杨 金花
-0.004321	燕山 响水
-0.004321	烟台 名妓
-0.004321	烟 </s>
-0.004321	雅 停
-0.004321	讯 旅游	-1.705447
-0.004321	雪山 第二
-0.004321	玄 鉴
-0.004321	漩 与	-1.907628
-0.004321	轩辕 帮	-1.705447
-0.004321	续 及
-0.004321	徐浩 因公
-0.004321	袖口 或	-1.705447
-0.004321	熊 取	-1.705447
-0.004321	信息 </s>
-0.004321	信 独闯
-0.004321	心悦 </s>
-0.004321	心仪 之人
-0.004321	心田 </s>
-0.004321	孝悌 </s>
-0.004321	小张 打电话	-1.405498
-0.004321	小姐 俺家
-0.004321	小将 孙
-0.004321	小工 </s>
-0.004321	向来 以	-1.828951
-0.004321	像 疯了
-0.004321	响水 湖
-0.004321	镶制 </s>
-0.004321	相识 </s>
-0.004321	湘菜 </s>
-0.004321	乡 下官
-0.004321	线上 勾
-0.004321	线 卫
-0.004321	现场 </s>
-0.004321	县县 长龙
-0.004321	县 </s>
-0.004321	弦 线上
-0.004321	先生 的	-1.996050
-0.004321	先 龙	-1.705447
-0.004321	下联 为	-1.925285
-0.004321	下官 阡
-0.004321	下 </s>
-0.004321	西山区 碧
-0.004321	西湖 龙井
-0.004321	犀牛 奖
-0.004321	昔日 林草
-0.004321	物产 丰饶
-0.004321	武后 派兵
-0.004321	武夫 </s>
-0.004321	武 惠
-0.004321	吾友 李隆基
-0.004321	巫 丹
-0.004321	我与 梦露
-0.004321	我想吃 湘菜
-0.004321	瓮中捉鳖 是个
-0.004321	文昌 滨海
-0.004321	温尼 伯格
-0.004321	魏 师傅
-0.004321	未 参加
-0.004321	卫 德里克
-0.004321	位置 </s>
-0.004321	位于 曼尼
-0.004321	伪军 军机处
-0.004321	韦恩 斯坦
-0.004321	违拗 送丧
-0.004321	为核心 的	-1.996050
-0.004321	为父 伸冤
-0.004321	威震天下 </s>
-0.004321	旺盛 </s>
-0.004321	王五 电信
-0.004321	王 旗
-0.004321	万宝龙 表厂
-0.004321	湾 海盗
-0.004321	脱下 的	-1.996050
-0.004321	托 巴
-0.004321	腿 打下手
-0.004321	吐絮 </s>
-0.004321	涂在 安徽阜阳
-0.004321	屠夫 拉
-0.004321	图上 </s>
-0.004321	图吧 导航
-0.004321	头发 梳头
-0.004321	偷着乐 只需要
-0.004321	同船 的	-1.996050
-0.004321	停 芳草
-0.004321	亭 的	-1.996050
-0.004321	听雨 阁	-1.705447
-0.004321	铁索桥 </s>
-0.004321	铁算盘 </s>
-0.004321	铁观音 茉莉
-0.004321	铁 帅
-0.004321	田林 县县
-0.004321	天津市 的	-1.996050
-0.004321	天津 河北
-0.004321	天湖 人对
-0.004321	套现 逾
-0.004321	淘宝网 </s>
-0.004321	唐山 秦皇岛
-0.004321	唐 奇
-0.004321	坦帕 湾
-0.004321	弹药罪 和	-1.907628
-0.004321	踏 碎
-0.004321	它 位于
-0.004321	她 所具
-0.004321	他到 潢川县
-0.004321	所列 十佳
-0.004321	所具 有的	-1.705447
-0.004321	所部 经
-0.004321	损坏 财物罪
-0.004321	孙 心悦
-0.004321	碎 了	-1.705447
-0.004321	诉至 法院
-0.004321	酥脆 而	-1.705447
-0.004321	苏州 到	-1.828951
-0.004321	搜狐新闻 </s>
-0.004321	搜狗 地图
-0.004321	送丧 </s>
-0.004321	送 衣裳
-0.004321	宋 家村
-0.004321	四亿 </s>
-0.004321	嗣 再次
-0.004321	斯坦 公司
-0.004321	思想 为核心
-0.004321	思南县 杨家
-0.004321	思聪 给	-1.962968
-0.004321	说服 阴曹
-0.004321	说法 只是
-0.004321	顺着 头发
-0.004321	帅 在	-1.953229
-0.004321	熟悉 杨
-0.004321	梳头 </s>
-0.004321	叔侄 情深
-0.004321	叔 从	-1.879743
-0.004321	寿宴 </s>
-0.004321	是个 成语
-0.004321	是否 有	-1.705447
-0.004321	是多少 </s>
-0.004321	市场 和	-1.907628
-0.004321	室友 都把
-0.004321	势力 凌霄城
-0.004321	使得 果仁
-0.004321	石家庄 唐山
-0.004321	时 允诺
-0.004321	十足 </s>
-0.004321	十一 长	-1.705447
-0.004321	十七 代
-0.004321	十佳 影片
-0.004321	十八掌 威震天下
-0.004321	师傅 给	-1.962968
-0.004321	失去了 茶褐色
-0.004321	失落 的	-1.996050
-0.004321	失禁 的	-1.996050
-0.004321	胜景 </s>
-0.004321	胜 清风
-0.004321	省会 温尼
-0.004321	生俘 忠义
-0.004321	升降 气
-0.004321	肾 在台湾
-0.004321	神 僧
-0.004321	身亡 </s>
-0.004321	申奥 专家
-0.004321	伸冤 </s>
-0.004321	设计 的	-1.996050
-0.004321	社区卫生 服务站
-0.004321	邵 续
-0.004321	上任 不久
-0.004321	上佳 表现
-0.004321	上达 脑门
-0.004321	上 </s>
-0.004321	衫裤 不得
-0.004321	沙发 </s>
-0.004321	沙尘 </s>
-0.004321	僧 玄
-0.004321	三 个
-0.004321	洒 段	-1.828951
-0.004321	瑞士 里诺
-0.004321	软软 的	-1.996050
-0.004321	乳儿 </s>
-0.004321	如何 </s>
-0.004321	如飞 在	-1.953229
-0.004321	如 相识
-0.004321	日升 的	-1.996050
-0.004321	日 的	-1.996050
-0.004321	仁爱 思想
-0.004321	人像 局部
-0.004321	人氏 </s>
-0.004321	人去 现场
-0.004321	人对 火箭
-0.004321	人 段	-1.828951
-0.004321	热水 </s>
-0.004321	绕 长安
-0.004321	染病 身亡
-0.004321	群众 合影
-0.004321	阙 歌
-0.004321	泉眼 冒着
-0.004321	泉边 发现
-0.004321	全年 财报
-0.004321	去 保安
-0.004321	球 封堵
-0.004321	邱爱华 和	-1.907628
-0.004321	庆 </s>
-0.004321	晴 曾
-0.004321	情深 更是
-0.004321	情商 要比
-0.004321	青色 </s>
-0.004321	青翠欲滴 的	-1.996050
-0.004321	清汤 炖煮
-0.004321	清风 迷
-0.004321	秦皇岛 </s>
-0.004321	强烈 的	-1.996050
-0.004321	墙上 的	-1.996050
-0.004321	歉 的	-1.996050
-0.004321	前 坦帕
-0.004321	阡 村
-0.004321	签约 后	-1.705447
-0.004321	千千 阙
-0.004321	气 漩
-0.004321	起点 </s>
-0.004321	绮丽 物产
-0.004321	旗 </s>
-0.004321	奇 前
-0.004321	其 鬼魂
-0.004321	剖 腹
-0.004321	萍水相逢 </s>
-0.004321	平 州
-0.004321	屏幕上 出现
-0.004321	频发 的	-1.996050
-0.004321	贫嘴 张大民
-0.004321	拼贴 历史
-0.004321	噼啪 囊空如洗
-0.004321	匹 砥
-0.004321	佩玉 结
-0.004321	畔 一带
-0.004321	判官 放回
-0.004321	派兵 追逐
-0.004321	拍摄 的	-1.996050
-0.004321	偶尔 摆
-0.004321	女子 为	-1.925285
-0.004321	女士 不幸	-1.705447
-0.004321	怒骂 急湍	-1.607680
-0.004321	浓积云 中有	-1.705447
-0.004321	农机局 职大
-0.004321	农 民院
-0.004321	牛肉丸 </s>
-0.004321	牛 腿
-0.004321	宁儿 怀揣
-0.004321	涅槃 图上
-0.004321	尿布 </s>
-0.004321	年度 金
-0.004321	年 全年
-0.004321	拈香 </s>
-0.004321	你的 吗
-0.004321	嫩黄 的	-1.996050
-0.004321	内 拈香
-0.004321	脑门 </s>
-0.004321	囊空如洗 </s>
-0.004321	难道 要像
-0.004321	南投县 访问
-0.004321	南京 的	-1.996050
-0.004321	南郊 </s>
-0.004321	南 亭
-0.004321	那样 没事
-0.004321	那么 多台
-0.004321	那段 工夫
-0.004321	目的地 </s>
-0.004321	木梳 或	-1.705447
-0.004321	慕容 鲜卑	-1.705447
-0.004321	牡丹 能	-1.705447
-0.004321	默默地 看着她
-0.004321	莫 茂
-0.004321	茉莉 银
-0.004321	命令 返回
-0.004321	明天 从	-1.879743
-0.004321	名妓 蔼
-0.004321	名茶 </s>
-0.004321	民院 墙上
-0.004321	民庭 副庭长
-0.004321	民间 传闻
-0.004321	棉毛 衫裤
-0.004321	棉袄 盖
-0.004321	密码 </s>
-0.004321	米原康正 拍摄
-0.004321	迷 烟
-0.004321	梦露 的	-1.996050
-0.004321	孟 梓
-0.004321	门柱 </s>
-0.004321	门楼 两侧
-0.004321	美国大片 </s>
-0.004321	美芳 去
-0.004321	没事 偷着乐
-0.004321	茂密 游鱼
-0.004321	茂 庆
-0.004321	冒着 热水
-0.004321	毛刷 顺着
-0.004321	毛 凤
-0.004321	曼尼 托
-0.004321	马蹄 踏
-0.004321	马赛克 拼贴
-0.004321	吗 形容	-1.705447
-0.004321	率领 下
-0.004321	洛水 畔
-0.004321	罗 缨
-0.004321	伦斯 半年
-0.004321	掠 飞驰
-0.004321	陆 南
-0.004321	路口 </s>
-0.004321	泸定县 境内
-0.004321	泸定 铁索桥
-0.004321	露出 </s>
-0.004321	蝼蚁 就
-0.004321	楼上 西湖
-0.004321	楼 至
-0.004321	龙井 铁观音
-0.004321	龙湖 分局
-0.004321	六和 的	-1.996050
-0.004321	柳 回
-0.004321	刘若英 的	-1.996050
-0.004321	另外 一名
-0.004321	灵魂 </s>
-0.004321	凌霄城 城主
-0.004321	林草 茂密
-0.004321	林 本源
-0.004321	聊斋 堪比
-0.004321	两名 老乡
-0.004321	两轮 中有	-1.705447
-0.004321	两颗 清汤
-0.004321	两侧 是	-1.925285
-0.004321	梁 喷云吐雾	-1.705447
-0.004321	凉意 从	-1.879743
-0.004321	怜 晴
-0.004321	立誓 永葆
-0.004321	立 了	-1.705447
-0.004321	历史 古迹
-0.004321	力 吉
-0.004321	里诺 万宝龙
-0.004321	李永祥 设计
-0.004321	李祥 局长
-0.004321	李宁玉 </s>
-0.004321	李隆基 先生
-0.004321	李 永信
-0.004321	老赵 打电话	-1.405498
-0.004321	老乡 李
-0.004321	老人 换洗
-0.004321	老将 巫
-0.004321	岚 孟
-0.004321	来讲 情商
-0.004321	辣椒酱 吃了
-0.004321	拉 牛
-0.004321	喇叭 则
-0.004321	块 </s>
-0.004321	酷 讯
-0.004321	裤脚 管
-0.004321	口感 更加
-0.004321	空山 竹影
-0.004321	克林 找到
-0.004321	可以 很轻
-0.004321	可能 正巧
-0.004321	科威尔 的	-1.996050
-0.004321	科科长 李宁玉
-0.004321	靠前 指挥
-0.004321	考究 的	-1.996050
-0.004321	看着她 斟茶
-0.004321	堪比 红楼
-0.004321	开沟 机
-0.004321	开办 宏恩
-0.004321	军机处 译
-0.004321	军功 爵
-0.004321	绝对 不是
-0.004321	爵 程序
-0.004321	捐助 埔里
-0.004321	咀嚼 </s>
-0.004321	局长 带
-0.004321	局部 大特写
-0.004321	居心叵测 的	-1.996050
-0.004321	救济款 在此
-0.004321	就 用手
-0.004321	酒店 </s>
-0.004321	静音 </s>
-0.004321	静谧 哀戚
-0.004321	境内 飞
-0.004321	景 臣
-0.004321	经典老歌 </s>
-0.004321	经典 美国大片
-0.004321	经 一夜
-0.004321	精心 镶制
-0.004321	进 正阳门
-0.004321	金簪 铁算盘
-0.004321	金花 的人
-0.004321	金 犀牛
-0.004321	解闷 </s>
-0.004321	节目 打开	-1.937478
-0.004321	结 缀
-0.004321	接应 二传
-0.004321	接 在建
-0.004321	脚下 球
-0.004321	脚底 上达
-0.004321	教师 的	-1.996050
-0.004321	降龙 十八掌
-0.004321	蒋氏 夫妇
-0.004321	奖 中	-1.705447
-0.004321	将 科威尔
-0.004321	鉴 为	-1.925285
-0.004321	见到 蝗虫
-0.004321	建筑队 当过
-0.004321	剑 听雨
-0.004321	捡到 的	-1.996050
-0.004321	监事 张	-1.828951
-0.004321	假意 立
-0.004321	假的 天气
-0.004321	家村 人氏
-0.004321	家 尤
-0.004321	加上 白色
-0.004321	冀州 刺史	-1.705447
-0.004321	疾 掠
-0.004321	急行军 赶到
-0.004321	吉他 弦
-0.004321	吉 别
-0.004321	及 鲜卑	-1.705447
-0.004321	鸡皮 加上
-0.004321	积雨 云和
-0.004321	机票 </s>
-0.004321	机顶盒 坏了
-0.004321	机 </s>
-0.004321	击溃 </s>
-0.004321	或者 低头
-0.004321	火箭 比分
-0.004321	火车票 </s>
-0.004321	活人 取	-1.705447
-0.004321	活 熊
-0.004321	惠 妃
-0.004321	会议 </s>
-0.004321	回良玉 等	-1.828951
-0.004321	回 信息
-0.004321	黄杨 木梳
-0.004321	黄 蒿
-0.004321	蝗虫 蝼蚁
-0.004321	皇帝 </s>
-0.004321	潢川县 城北
-0.004321	荒谬绝伦 </s>
-0.004321	荒谬 荒谬绝伦
-0.004321	换洗 尿布
-0.004321	欢叫 </s>
-0.004321	坏了 怎么
-0.004321	怀揣 告状
-0.004321	化 雪山
-0.004321	划出 灵魂
-0.004321	花鸟鱼虫 市场
-0.004321	户外 年度
-0.004321	互敬 </s>
-0.004321	胡适 摆下
-0.004321	胡军 扮演
-0.004321	胡 亥
-0.004321	湖 执白
-0.004321	后来 芝麻开门	-1.907628
-0.004321	厚厚 坐垫
-0.004321	候机厅 独自
-0.004321	红楼 蘸
-0.004321	弘 等	-1.828951
-0.004321	宏恩 幼稚园
-0.004321	很轻 易地
-0.004321	赫赫 的	-1.996050
-0.004321	河北 </s>
-0.004321	和睦 互敬
-0.004321	合影 </s>
-0.004321	号 航母
-0.004321	毫 等	-1.828951
-0.004321	蒿 梁
-0.004321	航母 </s>
-0.004321	亥 的	-1.996050
-0.004321	海盗 队
-0.004321	还有 他的	-1.705447
-0.004321	果仁 口感
-0.004321	涡流 </s>
-0.004321	贵州省 思南县
-0.004321	鬼魂 说服
-0.004321	珪 上任
-0.004321	逛 遍了
-0.004321	光文 所部
-0.004321	管 露出
-0.004321	观音庙 内
-0.004321	官邸 为	-1.925285
-0.004321	关于 段芝贵
-0.004321	拐弯处 偶尔
-0.004321	乖谬 乳儿
-0.004321	故意 损坏
-0.004321	古迹 林
-0.004321	古代 女子
-0.004321	古村 群众
-0.004321	勾 划出
-0.004321	工商局 龙湖
-0.004321	工匠 精心
-0.004321	工夫 </s>
-0.004321	功绩 赫赫
-0.004321	公司 发行
-0.004321	公路 龙	-1.705447
-0.004321	公交车 </s>
-0.004321	公 诉至
-0.004321	更是 逛
-0.004321	更加 酥脆
-0.004321	更改 密码
-0.004321	各种 早市
-0.004321	个 步骤
-0.004321	格力 小将
-0.004321	歌 </s>
-0.004321	告状 信
-0.004321	高 </s>
-0.004321	赶到 目的地
-0.004321	盖 在	-1.953229
-0.004321	丐帮 向来
-0.004321	腹 产儿
-0.004321	父亲 送
-0.004321	副庭长 的	-1.996050
-0.004321	服务站 </s>
-0.004321	夫妇 在	-1.953229
-0.004321	佛祖 涅槃
-0.004321	凤凰 社区卫生
-0.004321	凤 岚
-0.004321	风光 绮丽
-0.004321	疯了 一样	-1.705447
-0.004321	封堵 </s>
-0.004321	丰饶 </s>
-0.004321	丰 歉
-0.004321	分娩 儿
-0.004321	分局 的	-1.996050
-0.004321	飞驰 的	-1.996050
-0.004321	飞 夺
-0.004321	妃 女士
-0.004321	放回 阳世
-0.004321	放 一样	-1.705447
-0.004321	访问 时
-0.004321	仿佛 是	-1.925285
-0.004321	防 </s>
-0.004321	芳草 聊斋
-0.004321	泛 青色
-0.004321	返回 更改
-0.004321	法院 一事
-0.004321	法 和	-1.907628
-0.004321	发现 泉眼
-0.004321	发行 </s>
-0.004321	二传 是	-1.925285
-0.004321	二 </s>
-0.004321	儿 一般
-0.004321	谔 用	-1.705447
-0.004321	夺 泸定
-0.004321	多台 放
-0.004321	多少 帝
-0.004321	炖煮 的	-1.996050
-0.004321	队 线
-0.004321	段芝贵 与	-1.907628
-0.004321	断 不悔
-0.004321	度 化
-0.004321	独自 抽烟
-0.004321	独闯 中南海
-0.004321	都把 脱下
-0.004321	电信 芝麻开门	-1.607680
-0.004321	电 科科长
-0.004321	第六届 户外
-0.004321	第二 势力
-0.004321	帝 帜
-0.004321	地图 搜索	-1.879743
-0.004321	邸 </s>
-0.004321	砥 </s>
-0.004321	滴翠 的	-1.996050
-0.004321	低音 喇叭
-0.004321	低头 做
-0.004321	的人 不仅
-0.004321	德里克 </s>
-0.004321	岛 永
-0.004321	导致 椿
-0.004321	导航 </s>
-0.004321	当过 小工
-0.004321	当 教师
-0.004321	淡绿 泛
-0.004321	胆 咋
-0.004321	丹 </s>
-0.004321	带 人去
-0.004321	代 阁	-1.705447
-0.004321	逮 </s>
-0.004321	大小便 失禁
-0.004321	大特写 张力
-0.004321	大全 </s>
-0.004321	大盘走势 如何
-0.004321	大理石 门柱
-0.004321	大恩大德 </s>
-0.004321	大藏 家
-0.004321	打下手 </s>
-0.004321	打开浏览器 </s>
-0.004321	打狗棒 法
-0.004321	村 路口
-0.004321	崔 毖
-0.004321	丛台区 工商局
-0.004321	辞世 </s>
-0.004321	椿 叶	-1.828951
-0.004321	传闻 </s>
-0.004321	川 岛
-0.004321	出现 碧绿
-0.004321	出镜 场面
-0.004321	抽烟 解闷
-0.004321	宠妃 武
-0.004321	吃了 两颗
-0.004321	程序 的	-1.996050
-0.004321	盛 </s>
-0.004321	成语 </s>
-0.004321	成 活人
-0.004321	城主 </s>
-0.004321	城内 的	-1.996050
-0.004321	城北 给	-1.962968
-0.004321	陈 克林
-0.004321	臣 </s>
-0.004321	彻骨 的	-1.996050
-0.004321	超多 </s>
-0.004321	场面 超多
-0.004321	长龙 弘
-0.004321	长安 胜景
-0.004321	常山 赵子龙
-0.004321	昌 洒
-0.004321	产儿 高
-0.004321	禅 古村
-0.004321	茶褐色 中特
-0.004321	曾 思聪
-0.004321	草木 旺盛
-0.004321	参加 会议
-0.004321	菜田 开沟
-0.004321	菜 瓮	-1.879743
-0.004321	财物罪 被	-1.705447
-0.004321	财报 </s>
-0.004321	步骤 中	-1.705447
-0.004321	埔里 </s>
-0.004321	补 防
-0.004321	不是 有勇无谋
-0.004321	不久 便
-0.004321	不仅 被	-1.705447
-0.004321	不悔 绝对
-0.004321	不过 川
-0.004321	不得 从	-1.879743
-0.004321	不变 </s>
-0.004321	伯格 市	-1.705447
-0.004321	滨海 旅游	-1.705447
-0.004321	别 走到
-0.004321	表现 的	-1.996050
-0.004321	表厂 的	-1.996050
-0.004321	遍了 天津市
-0.004321	便 不幸	-1.705447
-0.004321	碧绿 滴翠
-0.004321	碧 鸡	-1.705447
-0.004321	毖 为	-1.925285
-0.004321	毕业生 李永祥
-0.004321	比利时 大藏
-0.004321	比分 是多少
-0.004321	本源 园
-0.004321	本 站前
-0.004321	被子 上
-0.004321	被人 涂在
-0.004321	焙烤 后	-1.705447
-0.004321	北京今天 是否
-0.004321	北京 天津
-0.004321	宝鼎 徐浩
-0.004321	保安 室	-1.705447
-0.004321	保 叔
-0.004321	薄荷 在	-1.953229
-0.004321	扮演 的	-1.996050
-0.004321	半年 在内地
-0.004321	办公 芝麻开门	-1.607680
-0.004321	颁赐 军功
-0.004321	百度 知道
-0.004321	摆下 寿宴
-0.004321	摆 有	-1.705447
-0.004321	白色 鸡	-1.705447
-0.004321	爸爸 </s>
-0.004321	巴 省会
-0.004321	八 水	-1.705447
-0.004321	奥组委 正式
-0.004321	敖 力
-0.004321	坳 乡
-0.004321	岸上 欢叫
-0.004321	俺家 机顶盒
-0.004321	安装 原位
-0.004321	安徽阜阳 农
-0.004321	蔼 如
-0.004321	埃塞克斯 勇猛
-0.004321	哀戚 的	-1.996050
-2.133571	<s> 给	-1.962968
-1.531511	<s> 在	-2.348257
-1.832541	<s> 打开	-2.157316
-1.355420	<s> 月光
-1.355420	<s> 语音
-2.133571	<s> 是	-1.925285
-1.355420	<s> 你好
-1.832541	<s> 芝麻开门	-1.607680
-2.133571	<s> 与	-1.907628
-1.832541	<s> 急湍	-1.607680
-2.133571	<s> 我	-1.879743
-2.133571	<s> 以	-1.828951
-1.832541	<s> 叶	-1.828951
-1.832541	<s> 余
-2.133571	<s> 由	-1.705447
-2.133571	<s> 用	-1.705447
-2.133571	<s> 市	-1.705447
-2.133571	<s> 喷云吐雾	-1.705447
-2.133571	<s> 发簪	-1.705447
-2.133571	<s> 而	-1.705447
-2.133571	<s> 祖居
-2.133571	<s> 自古
-2.133571	<s> 指法
-2.133571	<s> 这是
-2.133571	<s> 张廷
-2.133571	<s> 杂技
-2.133571	<s> 月
-2.133571	<s> 郁
-2.133571	<s> 又
-2.133571	<s> 影迷
-2.133571	<s> 银屏
-2.133571	<s> 阴道
-2.133571	<s> 因为
-2.133571	<s> 弈
-2.133571	<s> 一股
-2.133571	<s> 也是
-2.133571	<s> 要做
-2.133571	<s> 燕山
-2.133571	<s> 小姐
-2.133571	<s> 下联
-2.133571	<s> 昔日
-2.133571	<s> 武后
-2.133571	<s> 吾友
-2.133571	<s> 我与
-2.133571	<s> 瓮中捉鳖
-2.133571	<s> 魏
-2.133571	<s> 伪军
-2.133571	<s> 违拗
-2.133571	<s> 同船
-2.133571	<s> 田林
-2.133571	<s> 唐
-2.133571	<s> 弹药罪
-2.133571	<s> 它
-2.133571	<s> 他到
-2.133571	<s> 熟悉
-2.133571	<s> 室友
-2.133571	<s> 石家庄
-2.133571	<s> 失落
-2.133571	<s> 生俘
-2.133571	<s> 神
-2.133571	<s> 日
-2.133571	<s> 其
-2.133571	<s> 平
-2.133571	<s> 噼啪
-2.133571	<s> 怒骂
-2.133571	<s> 宁儿
-2.133571	<s> 年
-2.133571	<s> 嫩黄
-2.133571	<s> 难道
-2.133571	<s> 命令
-2.133571	<s> 明天
-2.133571	<s> 棉毛
-2.133571	<s> 米原康正
-2.133571	<s> 门楼
-2.133571	<s> 毛
-2.133571	<s> 楼上
-2.133571	<s> 立誓
-2.133571	<s> 酷
-2.133571	<s> 可能
-2.133571	<s> 经典
-2.133571	<s> 进
-2.133571	<s> 金簪
-2.133571	<s> 接应
-2.133571	<s> 接
-2.133571	<s> 蒋氏
-2.133571	<s> 见到
-2.133571	<s> 监事
-2.133571	<s> 假意
-2.133571	<s> 疾
-2.133571	<s> 积雨
-2.133571	<s> 活
-2.133571	<s> 黄
-2.133571	<s> 荒谬
-2.133571	<s> 胡军
-2.133571	<s> 还有
-2.133571	<s> 贵州省
-2.133571	<s> 关于
-2.133571	<s> 拐弯处
-2.133571	<s> 乖谬
-2.133571	<s> 古代
-2.133571	<s> 功绩
-2.133571	<s> 丐帮
-2.133571	<s> 仿佛
-2.133571	<s> 断
-2.133571	<s> 导致
-2.133571	<s> 丛台区
-2.133571	<s> 陈
-2.133571	<s> 菜
-2.133571	<s> 不过
-2.133571	<s> 比利时
-2.133571	<s> 北京
-2.133571	<s> 保
-2.133571	<s> 敖

\3-grams:
-0.004321	的 天气 </s>
-0.004321	的 能 形容
-0.004321	的 竹子 </s>
-0.004321	的 忠孝 孝悌
-0.004321	的 侄儿 子婴
-0.004321	的 这个 发簪
-0.004321	的 英军 像
-0.004321	的 一周 由
-0.004321	的 一介 武夫
-0.004321	的 县 </s>
-0.004321	的 文昌 滨海
-0.004321	的 位置 </s>
-0.004321	的 铁 帅
-0.004321	的 说法 只是
-0.004321	的 叔侄 情深
-0.004321	的 升降 气
-0.004321	的 沙发 </s>
-0.004321	的 三 个
-0.004321	的 人像 局部
-0.004321	的 佩玉 结
-0.004321	的 牛肉丸 </s>
-0.004321	的 那段 工夫
-0.004321	的 慕容 鲜卑
-0.004321	的 民庭 副庭长
-0.004321	的 棉袄 盖
-0.004321	的 马蹄 踏
-0.004321	的 率领 下
-0.004321	的 凉意 从
-0.004321	的 李祥 局长
-0.004321	的 老人 换洗
-0.004321	的 酒店 </s>
-0.004321	的 节目 打开
-0.004321	的 脚下 球
-0.004321	的 冀州 刺史
-0.004321	的 鸡皮 加上
-0.004321	的 火车票 </s>
-0.004321	的 花鸟鱼虫 市场
-0.004321	的 后来 芝麻开门
-0.004321	的 和睦 互敬
-0.004321	的 观音庙 内
-0.004321	的 工匠 精心
-0.004321	的 格力 小将
-0.004321	的 父亲 送
-0.004321	的 佛祖 涅槃
-0.004321	的 第六届 户外
-0.004321	的 大理石 门柱
-0.004321	的 宠妃 武
-0.004321	的 常山 赵子龙
-0.004321	的 菜田 开沟
-0.004321	的 薄荷 在
-0.004321	的 八 水
-0.004321	的 埃塞克斯 勇猛
-0.004321	给 张 语
-0.004321	给 邹 锦
-0.004321	给 张学友 办公
-0.004321	给 张信哲 打电话
-0.004321	给 小张 打电话
-0.004321	给 王五 电信
-0.004321	给 老赵 打电话
-0.004321	给 建筑队 当过
-0.004321	给 当 教师
-0.004321	给 大小便 失禁
-0.004321	给 爸爸 </s>
-0.004321	在 他的 被子
-0.004321	在 这幅 静谧
-0.004321	在 心田 </s>
-0.004321	在 泸定县 境内
-0.004321	在 吉他 弦
-0.004321	在 候机厅 独自
-0.004321	在 官邸 为
-0.004321	在 本 站前
-0.004321	在 颁赐 军功
-0.002166	打开 遥控器 设置
-0.004321	打开 图吧 导航
-0.004321	打开 淘宝网 </s>
-0.004321	打开 搜狐新闻 </s>
-0.004321	打开 搜狗 地图
-0.004321	打开 百度 知道
-0.001445	助手 我 想听
-0.001445	助手 发短信 给
-0.176814	月光 宝盒 打开
-0.778874	月光 宝盒 打开浏览器
-0.778874	月光 宝盒 </s>
-0.301753	语音 助手 我
-0.301753	语音 助手 发短信
-0.004321	为 室 雅
-0.004321	为 心仪 之人
-0.004321	为 居心叵测 的
-0.004321	为 皇帝 </s>
-0.004321	为 胡适 摆下
-0.004321	为 度 化
-0.004321	是 壮丽 考究
-0.004321	是 种了 一株
-0.004321	是 邱爱华 和
-0.004321	是 你的 吗
-0.004321	是 美芳 去
-0.004321	是 被人 涂在
-0.778874	你好 蓝精灵 今天
-0.477844	你好 蓝精灵 查看
-0.778874	你好 蓝精灵 昨
-0.778874	你好 蓝精灵 北京今天
-0.778874	你好 蓝精灵 </s>
-0.004321	蓝精灵 今天 大盘走势
-0.303196	蓝精灵 查看 今天
-0.303196	蓝精灵 查看 十一
-0.004321	蓝精灵 昨 天湖
-0.004321	蓝精灵 北京今天 是否
-0.603144	宝盒 打开 图吧
-0.603144	宝盒 打开 淘宝网
-0.603144	宝盒 打开 搜狐新闻
-0.603144	宝盒 打开 百度
-0.004321	宝盒 打开浏览器 </s>
-0.478566	芝麻开门 给 张信哲
-0.478566	芝麻开门 给 小张
-0.478566	芝麻开门 给 老赵
-0.004321	芝麻开门 搜索 最近
-0.004321	芝麻开门 我想吃 湘菜
-0.004321	与 段 日升
-0.004321	与 中国 奥组委
-0.004321	与 烟台 名妓
-0.004321	与 涡流 </s>
-0.004321	与 禅 古村
-0.004321	急湍 急湍 湍	-1.530076
-0.478566	急湍 湍 蓬
-0.177537	急湍 湍 </s>
-0.004321	和 张 景
-0.004321	和 老将 巫
-0.004321	和 降龙 十八掌
-0.004321	和 故意 损坏
-0.004321	和 各种 早市
-0.478566	我 想听 千千
-0.478566	我 想听 刘若英
-0.478566	我 想听 经典老歌
-0.004321	我 捡到 的
-0.303196	瓮 牖 蓬
-0.303196	瓮 牖 长
-0.004321	瓮 萍水相逢 </s>
-0.004321	瓮 城内 的
-0.004321	湍 蓬 户
-0.004321	搜索 最近 的
-0.004321	搜索 莫 茂
-0.004321	搜索 机票 </s>
-0.004321	搜索 公交车 </s>
-0.004321	打电话 给 邹
-0.004321	从 原来 的
-0.004321	从 袖口 或
-0.004321	从 苏州 到
-0.004321	从 脚底 上达
-0.004321	张 语 柳
-0.004321	张 景 臣
-0.004321	张 宝鼎 徐浩
-0.004321	以 仁爱 思想
-0.004321	以 马赛克 拼贴
-0.004321	以 打狗棒 法
-0.004321	叶 祖 珪
-0.004321	叶 失去了 茶褐色
-0.004321	叶 光文 所部
-0.004321	想听 千千 阙
-0.004321	想听 刘若英 的
-0.004321	想听 经典老歌 </s>
-0.478566	发短信 给 张学友
-0.478566	发短信 给 王五
-0.478566	发短信 给 爸爸
-0.004321	段 日升 的
-0.004321	段 起点 </s>
-0.004321	段 匹 砥
-0.004321	等 与 禅
-0.004321	等 主要领导 靠前
-0.004321	等 名茶 </s>
-0.004321	到 南京 的
-0.004321	到 静音 </s>
-0.004321	到 二 </s>
-0.004321	中有 上佳 表现
-0.004321	中有 强烈 的
-0.004321	中 低音 喇叭
-0.004321	余 页 朱
-0.004321	余 怜 晴
-0.004321	牖 蓬 户
-0.004321	牖 长 湍
-0.004321	有的 淡绿 泛
-0.004321	有的 大恩大德 </s>
-0.004321	有 一张 有着
-0.004321	有 沙尘 </s>
-0.004321	由 申奥 专家
-0.004321	由 瑞士 里诺
-0.004321	用 救济款 在此
-0.004321	用 黄杨 木梳
-0.303196	音量 到 静音
-0.303196	音量 到 二
-0.004321	一样 的 节目
-0.004321	一样 朝 岸上
-0.002166	遥控器 设置 音量
-0.004321	形容 水 盛
-0.004321	形容 草木 旺盛
-0.004321	鲜卑 人 段
-0.004321	鲜卑 击溃 </s>
-0.004321	他的 两名 老乡
-0.004321	他的 被子 上
-0.004321	水 绕 长安
-0.004321	水 盛 </s>
-0.004321	市 农机局 职大
-0.004321	市 南郊 </s>
-0.004321	室 的 那段
-0.004321	室 雅 停
-0.002166	设置 音量 到
-0.004321	取 肾 在台湾
-0.004321	取 胆 咋
-0.002166	蓬 户 瓮
-0.004321	喷云吐雾 急湍 </s>
-0.004321	能 形容 草木
-0.004321	能 兆示 旱涝
-0.004321	旅游 搜索 机票
-0.004321	旅游 公路 龙
-0.004321	龙 打电话 给
-0.004321	龙 楼 至
-0.004321	了 胡 亥
-0.004321	了 多少 帝
-0.004321	锦 锦 </s>
-0.004321	今天 的 天气
-0.004321	今天 大盘走势 如何
-0.004321	鸡 块 </s>
-0.004321	鸡 凤凰 社区卫生
-0.004321	或 猪鬃 毛刷
-0.004321	或 裤脚 管
-0.002166	户 瓮 牖
-0.004321	后 使得 果仁
-0.004321	旱涝 灾害 频发
-0.004321	旱涝 丰 歉
-0.004321	阁 主 陆
-0.004321	阁 在第 十七
-0.004321	发簪 是 你的
-0.004321	发簪 吐絮 </s>
-0.004321	而 易于 咀嚼
-0.004321	而 焙烤 后
-0.004321	刺史 邵 续
-0.004321	刺史 崔 毖
-0.004321	长 湍 </s>
-0.004321	长 假的 天气
-0.004321	查看 今天 的
-0.004321	查看 十一 长
-0.004321	不幸 染病 身亡
-0.004321	不幸 辞世 </s>
-0.004321	被 她 所具
-0.004321	被 公 诉至
-0.004321	帮 余党 于
-0.004321	帮 屠夫 拉
-0.004321	坐垫 软软 的
-0.004321	做 针线 </s>
-0.004321	昨 天湖 人对
-0.004321	最近 的 酒店
-0.004321	祖居 郓城县 宋
-0.004321	祖 珪 上任
-0.004321	走到 泉边 发现
-0.004321	邹 锦 锦
-0.004321	自古 风光 绮丽
-0.004321	梓 搜索 莫
-0.004321	子婴 为 皇帝
-0.004321	缀 罗 缨
-0.004321	追逐 轩辕 帮
-0.004321	壮丽 考究 的
-0.004321	专家 韦恩 斯坦
-0.004321	主要领导 靠前 指挥
-0.004321	主 陆 南
-0.004321	竹影 屏幕上 出现
-0.004321	猪鬃 毛刷 顺着
-0.004321	朱 先 龙
-0.004321	州 刺史 崔
-0.004321	众多 的 八
-0.004321	种了 一株 青翠欲滴
-0.004321	忠义 的 冀州
-0.004321	忠孝 孝悌 </s>
-0.004321	中卫 可以 很轻
-0.004321	中特 有的 淡绿
-0.004321	中盘 胜 清风
-0.004321	中南海 为父 伸冤
-0.004321	中国 奥组委 正式
-0.004321	至 昌 洒
-0.004321	帜 王 旗
-0.004321	指法 如飞 在
-0.004321	只需要 默默地 看着她
-0.004321	只是 民间 传闻
-0.004321	职大 毕业生 李永祥
-0.004321	执白 中盘 胜
-0.004321	侄儿 子婴 为
-0.004321	之人 的 佩玉
-0.004321	正阳门 瓮 城内
-0.004321	正式 签约 后
-0.004321	正巧 是 美芳
-0.004321	斟茶 或者 低头
-0.004321	这是 回良玉 等
-0.004321	这个 发簪 是
-0.004321	这幅 静谧 哀戚
-0.004321	这 六和 的
-0.004321	赵子龙 出镜 场面
-0.004321	兆示 旱涝 丰
-0.004321	找到 西山区 碧
-0.004321	朝 岸上 欢叫
-0.004321	张学友 办公 芝麻开门
-0.004321	张信哲 打电话 </s>
-0.004321	张廷 谔 用
-0.004321	张力 十足 </s>
-0.004321	张大民 那样 没事
-0.004321	蘸 辣椒酱 吃了
-0.004321	站前 两轮 中有
-0.004321	怎么 那么 多台
-0.004321	则 安装 原位
-0.004321	在台湾 南投县 访问
-0.004321	在内地 套现 逾
-0.004321	在建 的 文昌
-0.004321	在第 十七 代
-0.004321	在此 开办 宏恩
-0.004321	再次 将 科威尔
-0.004321	灾害 频发 的
-0.004321	咋 原版 移植
-0.004321	杂技 空山 竹影
-0.004321	郓城县 宋 家村
-0.004321	允诺 捐助 埔里
-0.004321	云和 浓积云 中有
-0.004321	月 与 中国
-0.004321	园 邸 </s>
-0.004321	原位 不变 </s>
-0.004321	原来 的 民庭
-0.004321	原版 移植 成
-0.004321	郁 的 能
-0.004321	语 柳 回
-0.004321	逾 四亿 </s>
-0.004321	余党 于 洛水
-0.004321	于 洛水 畔
-0.004321	又 帮 屠夫
-0.004321	有着 厚厚 坐垫
-0.004321	有勇无谋 的 一介
-0.004321	游鱼 众多 的
-0.004321	尤 伦斯 半年
-0.004321	用手 逮 </s>
-0.004321	永信 和 张
-0.004321	永葆 这 六和
-0.004321	永 嗣 再次
-0.004321	勇猛 号 航母
-0.004321	影片 大全 </s>
-0.004321	影迷 所列 十佳
-0.004321	英军 像 疯了
-0.004321	银屏 牡丹 能
-0.004321	银 毫 等
-0.004321	阴道 分娩 儿
-0.004321	阴曹 判官 放回
-0.004321	因为 另外 一名
-0.004321	因公 未 参加
-0.004321	译 电 科科长
-0.004321	易于 咀嚼 </s>
-0.004321	易地 补 防
-0.004321	弈 剑 听雨
-0.004321	移植 成 活人
-0.004321	一株 青翠欲滴 的
-0.004321	一周 由 申奥
-0.004321	一张 有着 厚厚
-0.004321	一夜 急行军 赶到
-0.004321	一名 中卫 可以
-0.004321	一介 武夫 </s>
-0.004321	一股 彻骨 的
-0.004321	一个 旱涝 灾害
-0.004321	一般 来讲 情商
-0.004321	页 朱 先
-0.004321	也是 一个 旱涝
-0.004321	要做 以 仁爱
-0.004321	要像 贫嘴 张大民
-0.004321	要比 剖 腹
-0.004321	杨家 坳 乡
-0.004321	杨 金花 的人
-0.004321	燕山 响水 湖
-0.004321	烟台 名妓 蔼
-0.004321	雅 停 芳草
-0.004321	讯 旅游 搜索
-0.004321	雪山 第二 势力
-0.004321	玄 鉴 为
-0.004321	漩 与 涡流
-0.004321	轩辕 帮 余党
-0.004321	续 及 鲜卑
-0.004321	徐浩 因公 未
-0.004321	袖口 或 裤脚
-0.004321	熊 取 胆
-0.004321	信 独闯 中南海
-0.004321	心仪 之人 的
-0.004321	小张 打电话 </s>
-0.004321	小姐 俺家 机顶盒
-0.004321	小将 孙 心悦
-0.004321	向来 以 打狗棒
-0.004321	像 疯了 一样
-0.004321	响水 湖 执白
-0.004321	乡 下官 阡
-0.004321	线上 勾 划出
-0.004321	线 卫 德里克
-0.004321	县县 长龙 弘
-0.004321	弦 线上 勾
-0.004321	先生 的 宠妃
-0.004321	先 龙 打电话
-0.004321	下联 为 室
-0.004321	下官 阡 村
-0.004321	西山区 碧 鸡
-0.004321	西湖 龙井 铁观音
-0.004321	犀牛 奖 中
-0.004321	昔日 林草 茂密
-0.004321	物产 丰饶 </s>
-0.004321	武后 派兵 追逐
-0.004321	武 惠 妃
-0.004321	吾友 李隆基 先生
-0.004321	巫 丹 </s>
-0.004321	我与 梦露 的
-0.004321	我想吃 湘菜 </s>
-0.004321	瓮中捉鳖 是个 成语
-0.004321	文昌 滨海 旅游
-0.004321	温尼 伯格 市
-0.004321	魏 师傅 给
-0.004321	未 参加 会议
-0.004321	卫 德里克 </s>
-0.004321	位于 曼尼 托
-0.004321	伪军 军机处 译
-0.004321	韦恩 斯坦 公司
-0.004321	违拗 送丧 </s>
-0.004321	为核心 的 忠孝
-0.004321	为父 伸冤 </s>
-0.004321	王五 电信 芝麻开门
-0.004321	王 旗 </s>
-0.004321	万宝龙 表厂 的
-0.004321	湾 海盗 队
-0.004321	脱下 的 棉袄
-0.004321	托 巴 省会
-0.004321	腿 打下手 </s>
-0.004321	涂在 安徽阜阳 农
-0.004321	屠夫 拉 牛
-0.004321	图吧 导航 </s>
-0.004321	头发 梳头 </s>
-0.004321	偷着乐 只需要 默默地
-0.004321	同船 的 英军
-0.004321	停 芳草 聊斋
-0.004321	亭 的 率领
-0.004321	听雨 阁 在第
-0.004321	铁观音 茉莉 银
-0.004321	铁 帅 在
-0.004321	田林 县县 长龙
-0.004321	天津市 的 花鸟鱼虫
-0.004321	天津 河北 </s>
-0.004321	天湖 人对 火箭
-0.004321	套现 逾 四亿
-0.004321	唐山 秦皇岛 </s>
-0.004321	唐 奇 前
-0.004321	坦帕 湾 海盗
-0.004321	弹药罪 和 故意
-0.004321	踏 碎 了
-0.004321	它 位于 曼尼
-0.004321	她 所具 有的
-0.004321	他到 潢川县 城北
-0.004321	所列 十佳 影片
-0.004321	所具 有的 大恩大德
-0.004321	所部 经 一夜
-0.004321	损坏 财物罪 被
-0.004321	孙 心悦 </s>
-0.004321	碎 了 多少
-0.004321	诉至 法院 一事
-0.004321	酥脆 而 易于
-0.004321	苏州 到 南京
-0.004321	搜狗 地图 搜索
-0.004321	送 衣裳 </s>
-0.004321	宋 家村 人氏
-0.004321	嗣 再次 将
-0.004321	斯坦 公司 发行
-0.004321	思想 为核心 的
-0.004321	思南县 杨家 坳
-0.004321	思聪 给 张
-0.004321	说服 阴曹 判官
-0.004321	说法 只是 民间
-0.004321	顺着 头发 梳头
-0.004321	帅 在 候机厅
-0.004321	熟悉 杨 金花
-0.004321	叔侄 情深 更是
-0.004321	叔 从 原来
-0.004321	是个 成语 </s>
-0.004321	是否 有 沙尘
-0.004321	市场 和 各种
-0.004321	室友 都把 脱下
-0.004321	势力 凌霄城 城主
-0.004321	使得 果仁 口感
-0.004321	石家庄 唐山 秦皇岛
-0.004321	时 允诺 捐助
-0.004321	十一 长 假的
-0.004321	十七 代 阁
-0.004321	十佳 影片 大全
-0.004321	十八掌 威震天下 </s>
-0.004321	师傅 给 建筑队
-0.004321	失去了 茶褐色 中特
-0.004321	失落 的 铁
-0.004321	失禁 的 老人
-0.004321	胜 清风 迷
-0.004321	省会 温尼 伯格
-0.004321	生俘 忠义 的
-0.004321	升降 气 漩
-0.004321	肾 在台湾 南投县
-0.004321	神 僧 玄
-0.004321	申奥 专家 韦恩
-0.004321	设计 的 菜田
-0.004321	社区卫生 服务站 </s>
-0.004321	邵 续 及
-0.004321	上任 不久 便
-0.004321	上佳 表现 的
-0.004321	上达 脑门 </s>
-0.004321	衫裤 不得 从
-0.004321	僧 玄 鉴
-0.004321	三 个 步骤
-0.004321	洒 段 起点
-0.004321	瑞士 里诺 万宝龙
-0.004321	软软 的 沙发
-0.004321	如飞 在 吉他
-0.004321	如 相识 </s>
-0.004321	日升 的 叔侄
-0.004321	日 的 第六届
-0.004321	仁爱 思想 为核心
-0.004321	人像 局部 大特写
-0.004321	人去 现场 </s>
-0.004321	人对 火箭 比分
-0.004321	人 段 匹
-0.004321	绕 长安 胜景
-0.004321	染病 身亡 </s>
-0.004321	群众 合影 </s>
-0.004321	阙 歌 </s>
-0.004321	泉眼 冒着 热水
-0.004321	泉边 发现 泉眼
-0.004321	全年 财报 </s>
-0.004321	去 保安 室
-0.004321	球 封堵 </s>
-0.004321	邱爱华 和 老将
-0.004321	晴 曾 思聪
-0.004321	情深 更是 逛
-0.004321	情商 要比 剖
-0.004321	青翠欲滴 的 薄荷
-0.004321	清汤 炖煮 的
-0.004321	清风 迷 烟
-0.004321	强烈 的 升降
-0.004321	墙上 的 </s>
-0.004321	歉 的 说法
-0.004321	前 坦帕 湾
-0.004321	阡 村 路口
-0.004321	签约 后 </s>
-0.004321	千千 阙 歌
-0.004321	气 漩 与
-0.004321	绮丽 物产 丰饶
-0.004321	奇 前 坦帕
-0.004321	其 鬼魂 说服
-0.004321	剖 腹 产儿
-0.004321	平 州 刺史
-0.004321	屏幕上 出现 碧绿
-0.004321	频发 的 县
-0.004321	贫嘴 张大民 那样
-0.004321	拼贴 历史 古迹
-0.004321	噼啪 囊空如洗 </s>
-0.004321	匹 砥 </s>
-0.004321	佩玉 结 缀
-0.004321	畔 一带 </s>
-0.004321	判官 放回 阳世
-0.004321	派兵 追逐 轩辕
-0.004321	拍摄 的 人像
-0.004321	偶尔 摆 有
-0.004321	女子 为 心仪
-0.004321	女士 不幸 辞世
-0.004321	怒骂 急湍 湍	-1.530076
-0.004321	浓积云 中有 强烈
-0.004321	农机局 职大 毕业生
-0.004321	农 民院 墙上
-0.004321	牛 腿 打下手
-0.004321	宁儿 怀揣 告状
-0.004321	涅槃 图上 </s>
-0.004321	年度 金 犀牛
-0.004321	年 全年 财报
-0.004321	你的 吗 形容
-0.004321	嫩黄 的 鸡皮
-0.004321	内 拈香 </s>
-0.004321	难道 要像 贫嘴
-0.004321	南投县 访问 时
-0.004321	南京 的 火车票
-0.004321	南 亭 的
-0.004321	那样 没事 偷着乐
-0.004321	那么 多台 放
-0.004321	那段 工夫 </s>
-0.004321	木梳 或 猪鬃
-0.004321	慕容 鲜卑 击溃
-0.004321	牡丹 能 兆示
-0.004321	默默地 看着她 斟茶
-0.004321	莫 茂 庆
-0.004321	茉莉 银 毫
-0.004321	命令 返回 更改
-0.004321	明天 从 苏州
-0.004321	名妓 蔼 如
-0.004321	民院 墙上 的
-0.004321	民庭 副庭长 的
-0.004321	民间 传闻 </s>
-0.004321	棉毛 衫裤 不得
-0.004321	棉袄 盖 在
-0.004321	米原康正 拍摄 的
-0.004321	迷 烟 </s>
-0.004321	梦露 的 一周
-0.004321	孟 梓 搜索
-0.004321	门楼 两侧 是
-0.004321	美芳 去 保安
-0.004321	没事 偷着乐 只需要
-0.004321	茂密 游鱼 众多
-0.004321	茂 庆 </s>
-0.004321	冒着 热水 </s>
-0.004321	毛刷 顺着 头发
-0.004321	毛 凤 岚
-0.004321	曼尼 托 巴
-0.004321	马蹄 踏 碎
-0.004321	马赛克 拼贴 历史
-0.004321	吗 形容 水
-0.004321	率领 下 </s>
-0.004321	洛水 畔 一带
-0.004321	罗 缨 </s>
-0.004321	伦斯 半年 在内地
-0.004321	掠 飞驰 的
-0.004321	陆 南 亭
-0.004321	泸定县 境内 飞
-0.004321	泸定 铁索桥 </s>
-0.004321	蝼蚁 就 用手
-0.004321	楼上 西湖 龙井
-0.004321	楼 至 昌
-0.004321	龙井 铁观音 茉莉
-0.004321	龙湖 分局 的
-0.004321	六和 的 和睦
-0.004321	柳 回 信息
-0.004321	刘若英 的 后来
-0.004321	另外 一名 中卫
-0.004321	凌霄城 城主 </s>
-0.004321	林草 茂密 游鱼
-0.004321	林 本源 园
-0.004321	聊斋 堪比 红楼
-0.004321	两名 老乡 李
-0.004321	两轮 中有 上佳
-0.004321	两颗 清汤 炖煮
-0.004321	两侧 是 壮丽
-0.004321	梁 喷云吐雾 </s>
-0.004321	凉意 从 脚底
-0.004321	怜 晴 曾
-0.004321	立誓 永葆 这
-0.004321	立 了 胡
-0.004321	历史 古迹 林
-0.004321	力 吉 别
-0.004321	里诺 万宝龙 表厂
-0.004321	李永祥 设计 的
-0.004321	李祥 局长 带
-0.004321	李隆基 先生 的
-0.004321	李 永信 和
-0.004321	老赵 打电话 </s>
-0.004321	老乡 李 永信
-0.004321	老人 换洗 尿布
-0.004321	老将 巫 丹
-0.004321	岚 孟 梓
-0.004321	来讲 情商 要比
-0.004321	辣椒酱 吃了 两颗
-0.004321	拉 牛 腿
-0.004321	喇叭 则 安装
-0.004321	酷 讯 旅游
-0.004321	裤脚 管 露出
-0.004321	口感 更加 酥脆
-0.004321	空山 竹影 屏幕上
-0.004321	克林 找到 西山区
-0.004321	可以 很轻 易地
-0.004321	可能 正巧 是
-0.004321	科威尔 的 脚下
-0.004321	科科长 李宁玉 </s>
-0.004321	靠前 指挥 </s>
-0.004321	考究 的 大理石
-0.004321	看着她 斟茶 或者
-0.004321	堪比 红楼 蘸
-0.004321	开沟 机 </s>
-0.004321	开办 宏恩 幼稚园
-0.004321	军机处 译 电
-0.004321	军功 爵 程序
-0.004321	绝对 不是 有勇无谋
-0.004321	爵 程序 的
-0.004321	捐助 埔里 </s>
-0.004321	局长 带 人去
-0.004321	局部 大特写 张力
-0.004321	居心叵测 的 慕容
-0.004321	救济款 在此 开办
-0.004321	就 用手 逮
-0.004321	静谧 哀戚 的
-0.004321	境内 飞 夺
-0.004321	景 臣 </s>
-0.004321	经典 美国大片 </s>
-0.004321	经 一夜 急行军
-0.004321	精心 镶制 </s>
-0.004321	进 正阳门 瓮
-0.004321	金簪 铁算盘 </s>
-0.004321	金花 的人 不仅
-0.004321	金 犀牛 奖
-0.004321	节目 打开 搜狗
-0.004321	结 缀 罗
-0.004321	接应 二传 是
-0.004321	接 在建 的
-0.004321	脚下 球 封堵
-0.004321	脚底 上达 脑门
-0.004321	教师 的 父亲
-0.004321	降龙 十八掌 威震天下
-0.004321	蒋氏 夫妇 在
-0.004321	奖 中 低音
-0.004321	将 科威尔 的
-0.004321	鉴 为 度
-0.004321	见到 蝗虫 蝼蚁
-0.004321	建筑队 当过 小工
-0.004321	剑 听雨 阁
-0.004321	捡到 的 这个
-0.004321	监事 张 宝鼎
-0.004321	假意 立 了
-0.004321	假的 天气 </s>
-0.004321	家村 人氏 </s>
-0.004321	家 尤 伦斯
-0.004321	加上 白色 鸡
-0.004321	冀州 刺史 邵
-0.004321	疾 掠 飞驰
-0.004321	急行军 赶到 目的地
-0.004321	吉他 弦 线上
-0.004321	吉 别 走到
-0.004321	及 鲜卑 人
-0.004321	鸡皮 加上 白色
-0.004321	积雨 云和 浓积云
-0.004321	机顶盒 坏了 怎么
-0.004321	或者 低头 做
-0.004321	火箭 比分 是多少
-0.004321	活人 取 肾
-0.004321	活 熊 取
-0.004321	惠 妃 女士
-0.004321	回良玉 等 与
-0.004321	回 信息 </s>
-0.004321	黄杨 木梳 或
-0.004321	黄 蒿 梁
-0.004321	蝗虫 蝼蚁 就
-0.004321	潢川县 城北 给
-0.004321	荒谬 荒谬绝伦 </s>
-0.004321	换洗 尿布 </s>
-0.004321	坏了 怎么 那么
-0.004321	怀揣 告状 信
-0.004321	化 雪山 第二
-0.004321	划出 灵魂 </s>
-0.004321	花鸟鱼虫 市场 和
-0.004321	户外 年度 金
-0.004321	胡适 摆下 寿宴
-0.004321	胡军 扮演 的
-0.004321	胡 亥 的
-0.004321	湖 执白 中盘
-0.004321	后来 芝麻开门 搜索
-0.004321	厚厚 坐垫 软软
-0.004321	候机厅 独自 抽烟
-0.004321	红楼 蘸 辣椒酱
-0.004321	弘 等 主要领导
-0.004321	宏恩 幼稚园 </s>
-0.004321	很轻 易地 补
-0.004321	赫赫 的 埃塞克斯
-0.004321	和睦 互敬 </s>
-0.004321	号 航母 </s>
-0.004321	毫 等 名茶
-0.004321	蒿 梁 喷云吐雾
-0.004321	亥 的 侄儿
-0.004321	海盗 队 线
-0.004321	还有 他的 两名
-0.004321	果仁 口感 更加
-0.004321	贵州省 思南县 杨家
-0.004321	鬼魂 说服 阴曹
-0.004321	珪 上任 不久
-0.004321	逛 遍了 天津市
-0.004321	光文 所部 经
-0.004321	管 露出 </s>
-0.004321	观音庙 内 拈香
-0.004321	官邸 为 胡适
-0.004321	关于 段芝贵 与
-0.004321	拐弯处 偶尔 摆
-0.004321	乖谬 乳儿 </s>
-0.004321	故意 损坏 财物罪
-0.004321	古迹 林 本源
-0.004321	古代 女子 为
-0.004321	古村 群众 合影
-0.004321	勾 划出 灵魂
-0.004321	工商局 龙湖 分局
-0.004321	工匠 精心 镶制
-0.004321	功绩 赫赫 的
-0.004321	公司 发行 </s>
-0.004321	公路 龙 楼
-0.004321	公 诉至 法院
-0.004321	更是 逛 遍了
-0.004321	更加 酥脆 而
-0.004321	更改 密码 </s>
-0.004321	各种 早市 </s>
-0.004321	个 步骤 中
-0.004321	格力 小将 孙
-0.004321	告状 信 独闯
-0.004321	赶到 目的地 </s>
-0.004321	盖 在 他的
-0.004321	丐帮 向来 以
-0.004321	腹 产儿 高
-0.004321	父亲 送 衣裳
-0.004321	副庭长 的 位置
-0.004321	夫妇 在 官邸
-0.004321	佛祖 涅槃 图上
-0.004321	凤凰 社区卫生 服务站
-0.004321	凤 岚 孟
-0.004321	风光 绮丽 物产
-0.004321	疯了 一样 朝
-0.004321	丰 歉 的
-0.004321	分娩 儿 一般
-0.004321	分局 的 李祥
-0.004321	飞驰 的 马蹄
-0.004321	飞 夺 泸定
-0.004321	妃 女士 不幸
-0.004321	放回 阳世 </s>
-0.004321	放 一样 的
-0.004321	访问 时 允诺
-0.004321	仿佛 是 种了
-0.004321	芳草 聊斋 堪比
-0.004321	泛 青色 </s>
-0.004321	返回 更改 密码
-0.004321	法院 一事 </s>
-0.004321	法 和 降龙
-0.004321	发现 泉眼 冒着
-0.004321	二传 是 邱爱华
-0.004321	儿 一般 来讲
-0.004321	谔 用 救济款
-0.004321	夺 泸定 铁索桥
-0.004321	多台 放 一样
-0.004321	多少 帝 帜
-0.004321	炖煮 的 牛肉丸
-0.004321	队 线 卫
-0.004321	段芝贵 与 段
-0.004321	断 不悔 绝对
-0.004321	度 化 雪山
-0.004321	独自 抽烟 解闷
-0.004321	独闯 中南海 为父
-0.004321	都把 脱下 的
-0.004321	电信 芝麻开门 给	-1.828951
-0.004321	电 科科长 李宁玉
-0.004321	第六届 户外 年度
-0.004321	第二 势力 凌霄城
-0.004321	帝 帜 王
-0.004321	地图 搜索 公交车
-0.004321	滴翠 的 竹子
-0.004321	低音 喇叭 则
-0.004321	低头 做 针线
-0.004321	的人 不仅 被
-0.004321	岛 永 嗣
-0.004321	导致 椿 叶
-0.004321	当过 小工 </s>
-0.004321	当 教师 的
-0.004321	淡绿 泛 青色
-0.004321	胆 咋 原版
-0.004321	带 人去 现场
-0.004321	代 阁 主
-0.004321	大小便 失禁 的
-0.004321	大特写 张力 十足
-0.004321	大盘走势 如何 </s>
-0.004321	大理石 门柱 </s>
-0.004321	大藏 家 尤
-0.004321	打狗棒 法 和
-0.004321	村 路口 </s>
-0.004321	崔 毖 为
-0.004321	丛台区 工商局 龙湖
-0.004321	椿 叶 失去了
-0.004321	川 岛 永
-0.004321	出现 碧绿 滴翠
-0.004321	出镜 场面 超多
-0.004321	抽烟 解闷 </s>
-0.004321	宠妃 武 惠
-0.004321	吃了 两颗 清汤
-0.004321	程序 的 三
-0.004321	成 活人 取
-0.004321	城内 的 观音庙
-0.004321	城北 给 当
-0.004321	陈 克林 找到
-0.004321	彻骨 的 凉意
-0.004321	场面 超多 </s>
-0.004321	长龙 弘 等
-0.004321	长安 胜景 </s>
-0.004321	常山 赵子龙 出镜
-0.004321	昌 洒 段
-0.004321	产儿 高 </s>
-0.004321	禅 古村 群众
-0.004321	茶褐色 中特 有的
-0.004321	曾 思聪 给
-0.004321	草木 旺盛 </s>
-0.004321	参加 会议 </s>
-0.004321	菜田 开沟 机
-0.004321	菜 瓮 萍水相逢
-0.004321	财物罪 被 公
-0.004321	步骤 中 </s>
-0.004321	补 防 </s>
-0.004321	不是 有勇无谋 的
-0.004321	不久 便 不幸
-0.004321	不仅 被 她
-0.004321	不悔 绝对 不是
-0.004321	不过 川 岛
-0.004321	不得 从 袖口
-0.004321	伯格 市 南郊
-0.004321	滨海 旅游 公路
-0.004321	别 走到 泉边
-0.004321	表现 的 格力
-0.004321	表厂 的 工匠
-0.004321	遍了 天津市 的
-0.004321	便 不幸 染病
-0.004321	碧绿 滴翠 的
-0.004321	碧 鸡 凤凰
-0.004321	毖 为 居心叵测
-0.004321	毕业生 李永祥 设计
-0.004321	比利时 大藏 家
-0.004321	比分 是多少 </s>
-0.004321	本源 园 邸
-0.004321	本 站前 两轮
-0.004321	被子 上 </s>
-0.004321	被人 涂在 安徽阜阳
-0.004321	焙烤 后 使得
-0.004321	北京今天 是否 有
-0.004321	北京 天津 河北
-0.004321	宝鼎 徐浩 因公
-0.004321	保安 室 的
-0.004321	保 叔 从
-0.004321	薄荷 在 心田
-0.004321	扮演 的 常山
-0.004321	半年 在内地 套现
-0.004321	办公 芝麻开门 给	-1.828951
-0.004321	颁赐 军功 爵
-0.004321	百度 知道 </s>
-0.004321	摆下 寿宴 </s>
-0.004321	摆 有 一张
-0.004321	白色 鸡 块
-0.004321	巴 省会 温尼
-0.004321	八 水 绕
-0.004321	奥组委 正式 签约
-0.004321	敖 力 吉
-0.004321	坳 乡 下官
-0.004321	岸上 欢叫 </s>
-0.004321	俺家 机顶盒 坏了
-0.004321	安装 原位 不变
-0.004321	安徽阜阳 农 民院
-0.004321	蔼 如 相识
-0.004321	埃塞克斯 勇猛 号
-0.004321	哀戚 的 佛祖
-0.004321	<s> 给 大小便
-0.603144	<s> 在 这幅
-0.603144	<s> 在 泸定县
-0.603144	<s> 在 本
-0.603144	<s> 在 颁赐
-0.002166	<s> 打开 遥控器
-0.000723	<s> 月光 宝盒
-0.000723	<s> 语音 助手
-0.004321	<s> 是 被人
-0.000723	<s> 你好 蓝精灵
-0.303196	<s> 芝麻开门 给	-1.828951
-0.303196	<s> 芝麻开门 我想吃
-0.004321	<s> 与 烟台
-0.303196	<s> 急湍 急湍
-0.303196	<s> 急湍 湍	-1.828951
-0.004321	<s> 我 捡到
-0.004321	<s> 以 马赛克
-0.303196	<s> 叶 祖
-0.303196	<s> 叶 光文
-0.303196	<s> 余 页
-0.303196	<s> 余 怜
-0.004321	<s> 由 瑞士
-0.004321	<s> 用 黄杨
-0.004321	<s> 市 农机局
-0.004321	<s> 喷云吐雾 急湍
-0.004321	<s> 发簪 吐絮
-0.004321	<s> 而 焙烤
-0.004321	<s> 祖居 郓城县
-0.004321	<s> 自古 风光
-0.004321	<s> 指法 如飞
-0.004321	<s> 这是 回良玉
-0.004321	<s> 张廷 谔
-0.004321	<s> 杂技 空山
-0.004321	<s> 月 与
-0.004321	<s> 郁 的
-0.004321	<s> 又 帮
-0.004321	<s> 影迷 所列
-0.004321	<s> 银屏 牡丹
-0.004321	<s> 阴道 分娩
-0.004321	<s> 因为 另外
-0.004321	<s> 弈 剑
-0.004321	<s> 一股 彻骨
-0.004321	<s> 也是 一个
-0.004321	<s> 要做 以
-0.004321	<s> 燕山 响水
-0.004321	<s> 小姐 俺家
-0.004321	<s> 下联 为
-0.004321	<s> 昔日 林草
-0.004321	<s> 武后 派兵
-0.004321	<s> 吾友 李隆基
-0.004321	<s> 我与 梦露
-0.004321	<s> 瓮中捉鳖 是个
-0.004321	<s> 魏 师傅
-0.004321	<s> 伪军 军机处
-0.004321	<s> 违拗 送丧
-0.004321	<s> 同船 的
-0.004321	<s> 田林 县县
-0.004321	<s> 唐 奇
-0.004321	<s> 弹药罪 和
-0.004321	<s> 它 位于
-0.004321	<s> 他到 潢川县
-0.004321	<s> 熟悉 杨
-0.004321	<s> 室友 都把
-0.004321	<s> 石家庄 唐山
-0.004321	<s> 失落 的
-0.004321	<s> 生俘 忠义
-0.004321	<s> 神 僧
-0.004321	<s> 日 的
-0.004321	<s> 其 鬼魂
-0.004321	<s> 平 州
-0.004321	<s> 噼啪 囊空如洗
-0.004321	<s> 怒骂 急湍
-0.004321	<s> 宁儿 怀揣
-0.004321	<s> 年 全年
-0.004321	<s> 嫩黄 的
-0.004321	<s> 难道 要像
-0.004321	<s> 命令 返回
-0.004321	<s> 明天 从
-0.004321	<s> 棉毛 衫裤
-0.004321	<s> 米原康正 拍摄
-0.004321	<s> 门楼 两侧
-0.004321	<s> 毛 凤
-0.004321	<s> 楼上 西湖
-0.004321	<s> 立誓 永葆
-0.004321	<s> 酷 讯
-0.004321	<s> 可能 正巧
-0.004321	<s> 经典 美国大片
-0.004321	<s> 进 正阳门
-0.004321	<s> 金簪 铁算盘
-0.004321	<s> 接应 二传
-0.004321	<s> 接 在建
-0.004321	<s> 蒋氏 夫妇
-0.004321	<s> 见到 蝗虫
-0.004321	<s> 监事 张
-0.004321	<s> 假意 立
-0.004321	<s> 疾 掠
-0.004321	<s> 积雨 云和
-0.004321	<s> 活 熊
-0.004321	<s> 黄 蒿
-0.004321	<s> 荒谬 荒谬绝伦
-0.004321	<s> 胡军 扮演
-0.004321	<s> 还有 他的
-0.004321	<s> 贵州省 思南县
-0.004321	<s> 关于 段芝贵
-0.004321	<s> 拐弯处 偶尔
-0.004321	<s> 乖谬 乳儿
-0.004321	<s> 古代 女子
-0.004321	<s> 功绩 赫赫
-0.004321	<s> 丐帮 向来
-0.004321	<s> 仿佛 是
-0.004321	<s> 断 不悔
-0.004321	<s> 导致 椿
-0.004321	<s> 丛台区 工商局
-0.004321	<s> 陈 克林
-0.004321	<s> 菜 瓮
-0.004321	<s> 不过 川
-0.004321	<s> 比利时 大藏
-0.004321	<s> 北京 天津
-0.004321	<s> 保 叔
-0.004321	<s> 敖 力

\4-grams:
-0.004321	的 能 形容 草木
-0.004321	的 忠孝 孝悌 </s>
-0.004321	的 侄儿 子婴 为
-0.004321	的 这个 发簪 是
-0.004321	的 英军 像 疯了
-0.004321	的 一周 由 申奥
-0.004321	的 一介 武夫 </s>
-0.004321	的 文昌 滨海 旅游
-0.004321	的 铁 帅 在
-0.004321	的 说法 只是 民间
-0.004321	的 叔侄 情深 更是
-0.004321	的 升降 气 漩
-0.004321	的 三 个 步骤
-0.004321	的 人像 局部 大特写
-0.004321	的 佩玉 结 缀
-0.004321	的 那段 工夫 </s>
-0.004321	的 慕容 鲜卑 击溃
-0.004321	的 民庭 副庭长 的
-0.004321	的 棉袄 盖 在
-0.004321	的 马蹄 踏 碎
-0.004321	的 率领 下 </s>
-0.004321	的 凉意 从 脚底
-0.004321	的 李祥 局长 带
-0.004321	的 老人 换洗 尿布
-0.004321	的 节目 打开 搜狗
-0.004321	的 脚下 球 封堵
-0.004321	的 冀州 刺史 邵
-0.004321	的 鸡皮 加上 白色
-0.004321	的 花鸟鱼虫 市场 和
-0.004321	的 后来 芝麻开门 搜索
-0.004321	的 和睦 互敬 </s>
-0.004321	的 观音庙 内 拈香
-0.004321	的 工匠 精心 镶制
-0.004321	的 格力 小将 孙
-0.004321	的 父亲 送 衣裳
-0.004321	的 佛祖 涅槃 图上
-0.004321	的 第六届 户外 年度
-0.004321	的 大理石 门柱 </s>
-0.004321	的 宠妃 武 惠
-0.004321	的 常山 赵子龙 出镜
-0.004321	的 菜田 开沟 机
-0.004321	的 薄荷 在 心田
-0.004321	的 八 水 绕
-0.004321	的 埃塞克斯 勇猛 号
-0.004321	给 张 语 柳
-0.004321	给 邹 锦 锦
-0.004321	给 张学友 办公 芝麻开门
-0.004321	给 张信哲 打电话 </s>
-0.004321	给 小张 打电话 </s>
-0.004321	给 王五 电信 芝麻开门
-0.004321	给 老赵 打电话 </s>
-0.004321	给 建筑队 当过 小工
-0.004321	给 当 教师 的
-0.004321	给 大小便 失禁 的
-0.004321	在 他的 被子 上
-0.004321	在 这幅 静谧 哀戚
-0.004321	在 泸定县 境内 飞
-0.004321	在 吉他 弦 线上
-0.004321	在 候机厅 独自 抽烟
-0.004321	在 官邸 为 胡适
-0.004321	在 本 站前 两轮
-0.004321	在 颁赐 军功 爵
-0.002166	打开 遥控器 设置 音量
-0.004321	打开 图吧 导航 </s>
-0.004321	打开 搜狗 地图 搜索
-0.004321	打开 百度 知道 </s>
-0.478566	助手 我 想听 千千
-0.478566	助手 我 想听 刘若英
-0.478566	助手 我 想听 经典老歌
-0.478566	助手 发短信 给 张学友
-0.478566	助手 发短信 给 王五
-0.478566	助手 发短信 给 爸爸
-0.603144	月光 宝盒 打开 图吧
-0.603144	月光 宝盒 打开 淘宝网
-0.603144	月光 宝盒 打开 搜狐新闻
-0.603144	月光 宝盒 打开 百度
-0.004321	月光 宝盒 打开浏览器 </s>
-0.001445	语音 助手 我 想听
-0.001445	语音 助手 发短信 给
-0.004321	为 室 雅 停
-0.004321	为 心仪 之人 的
-0.004321	为 居心叵测 的 慕容
-0.004321	为 胡适 摆下 寿宴
-0.004321	为 度 化 雪山
-0.004321	是 壮丽 考究 的
-0.004321	是 种了 一株 青翠欲滴
-0.004321	是 邱爱华 和 老将
-0.004321	是 你的 吗 形容
-0.004321	是 美芳 去 保安
-0.004321	是 被人 涂在 安徽阜阳
-0.004321	你好 蓝精灵 今天 大盘走势
-0.303196	你好 蓝精灵 查看 今天
-0.303196	你好 蓝精灵 查看 十一
-0.004321	你好 蓝精灵 昨 天湖
-0.004321	你好 蓝精灵 北京今天 是否
-0.004321	蓝精灵 今天 大盘走势 如何
-0.004321	蓝精灵 查看 今天 的
-0.004321	蓝精灵 查看 十一 长
-0.004321	蓝精灵 昨 天湖 人对
-0.004321	蓝精灵 北京今天 是否 有
-0.004321	宝盒 打开 图吧 导航
-0.004321	宝盒 打开 淘宝网 </s>
-0.004321	宝盒 打开 搜狐新闻 </s>
-0.004321	宝盒 打开 百度 知道
-0.004321	芝麻开门 给 张信哲 打电话
-0.004321	芝麻开门 给 小张 打电话
-0.004321	芝麻开门 给 老赵 打电话
-0.004321	芝麻开门 搜索 最近 的
-0.004321	芝麻开门 我想吃 湘菜 </s>
-0.004321	与 段 日升 的
-0.004321	与 中国 奥组委 正式
-0.004321	与 烟台 名妓 蔼
-0.004321	与 禅 古村 群众
-0.004321	急湍 急湍 湍 </s>
-0.004321	急湍 湍 蓬 户
-0.004321	和 张 景 臣
-0.004321	和 老将 巫 丹
-0.004321	和 降龙 十八掌 威震天下
-0.004321	和 故意 损坏 财物罪
-0.004321	和 各种 早市 </s>
-0.004321	我 想听 千千 阙
-0.004321	我 想听 刘若英 的
-0.004321	我 想听 经典老歌 </s>
-0.004321	我 捡到 的 这个
-0.004321	瓮 牖 蓬 户
-0.004321	瓮 牖 长 湍
-0.004321	瓮 城内 的 观音庙
-0.004321	湍 蓬 户 瓮
-0.004321	搜索 最近 的 酒店
-0.004321	搜索 莫 茂 庆
-0.004321	打电话 给 邹 锦
-0.004321	从 原来 的 民庭
-0.004321	从 袖口 或 裤脚
-0.004321	从 苏州 到 南京
-0.004321	从 脚底 上达 脑门
-0.004321	张 语 柳 回
-0.004321	张 景 臣 </s>
-0.004321	张 宝鼎 徐浩 因公
-0.004321	以 仁爱 思想 为核心
-0.004321	以 马赛克 拼贴 历史
-0.004321	以 打狗棒 法 和
-0.004321	叶 祖 珪 上任
-0.004321	叶 失去了 茶褐色 中特
-0.004321	叶 光文 所部 经
-0.004321	想听 千千 阙 歌
-0.004321	想听 刘若英 的 后来
-0.004321	发短信 给 张学友 办公
-0.004321	发短信 给 王五 电信
-0.004321	发短信 给 爸爸 </s>
-0.004321	段 日升 的 叔侄
-0.004321	段 匹 砥 </s>
-0.004321	等 与 禅 古村
-0.004321	等 主要领导 靠前 指挥
-0.004321	到 南京 的 火车票
-0.004321	中有 上佳 表现 的
-0.004321	中有 强烈 的 升降
-0.004321	中 低音 喇叭 则
-0.004321	余 页 朱 先
-0.004321	余 怜 晴 曾
-0.004321	牖 蓬 户 瓮
-0.004321	牖 长 湍 </s>
-0.004321	有的 淡绿 泛 青色
-0.004321	有 一张 有着 厚厚
-0.004321	由 申奥 专家 韦恩
-0.004321	由 瑞士 里诺 万宝龙
-0.004321	用 救济款 在此 开办
-0.004321	用 黄杨 木梳 或
-0.004321	音量 到 静音 </s>
-0.004321	音量 到 二 </s>
-0.004321	一样 的 节目 打开
-0.004321	一样 朝 岸上 欢叫
-0.002166	遥控器 设置 音量 到
-0.004321	形容 水 盛 </s>
-0.004321	形容 草木 旺盛 </s>
-0.004321	鲜卑 人 段 匹
-0.004321	他的 两名 老乡 李
-0.004321	他的 被子 上 </s>
-0.004321	水 绕 长安 胜景
-0.004321	市 农机局 职大 毕业生
-0.004321	室 的 那段 工夫
-0.004321	室 雅 停 芳草
-0.303196	设置 音量 到 静音
-0.303196	设置 音量 到 二
-0.004321	取 肾 在台湾 南投县
-0.004321	取 胆 咋 原版
-0.002166	蓬 户 瓮 牖
-0.004321	能 形容 草木 旺盛
-0.004321	能 兆示 旱涝 丰
-0.004321	旅游 搜索 机票 </s>
-0.004321	旅游 公路 龙 楼
-0.004321	龙 打电话 给 邹
-0.004321	龙 楼 至 昌
-0.004321	了 胡 亥 的
-0.004321	了 多少 帝 帜
-0.004321	今天 的 天气 </s>
-0.004321	今天 大盘走势 如何 </s>
-0.004321	鸡 凤凰 社区卫生 服务站
-0.004321	或 猪鬃 毛刷 顺着
-0.004321	或 裤脚 管 露出
-0.303196	户 瓮 牖 蓬
-0.303196	户 瓮 牖 长
-0.004321	后 使得 果仁 口感
-0.004321	旱涝 灾害 频发 的
-0.004321	旱涝 丰 歉 的
-0.004321	阁 主 陆 南
-0.004321	阁 在第 十七 代
-0.004321	发簪 是 你的 吗
-0.004321	而 易于 咀嚼 </s>
-0.004321	而 焙烤 后 使得
-0.004321	刺史 邵 续 及
-0.004321	刺史 崔 毖 为
-0.004321	长 假的 天气 </s>
-0.004321	查看 今天 的 天气
-0.004321	查看 十一 长 假的
-0.004321	不幸 染病 身亡 </s>
-0.004321	被 她 所具 有的
-0.004321	被 公 诉至 法院
-0.004321	帮 余党 于 洛水
-0.004321	帮 屠夫 拉 牛
-0.004321	坐垫 软软 的 沙发
-0.004321	昨 天湖 人对 火箭
-0.004321	最近 的 酒店 </s>
-0.004321	祖居 郓城县 宋 家村
-0.004321	祖 珪 上任 不久
-0.004321	走到 泉边 发现 泉眼
-0.004321	邹 锦 锦 </s>
-0.004321	自古 风光 绮丽 物产
-0.004321	梓 搜索 莫 茂
-0.004321	子婴 为 皇帝 </s>
-0.004321	缀 罗 缨 </s>
-0.004321	追逐 轩辕 帮 余党
-0.004321	壮丽 考究 的 大理石
-0.004321	专家 韦恩 斯坦 公司
-0.004321	主要领导 靠前 指挥 </s>
-0.004321	主 陆 南 亭
-0.004321	竹影 屏幕上 出现 碧绿
-0.004321	猪鬃 毛刷 顺着 头发
-0.004321	朱 先 龙 打电话
-0.004321	州 刺史 崔 毖
-0.004321	众多 的 八 水
-0.004321	种了 一株 青翠欲滴 的
-0.004321	忠义 的 冀州 刺史
-0.004321	中卫 可以 很轻 易地
-0.004321	中特 有的 淡绿 泛
-0.004321	中盘 胜 清风 迷
-0.004321	中南海 为父 伸冤 </s>
-0.004321	中国 奥组委 正式 签约
-0.004321	至 昌 洒 段
-0.004321	帜 王 旗 </s>
-0.004321	指法 如飞 在 吉他
-0.004321	只需要 默默地 看着她 斟茶
-0.004321	只是 民间 传闻 </s>
-0.004321	职大 毕业生 李永祥 设计
-0.004321	执白 中盘 胜 清风
-0.004321	侄儿 子婴 为 皇帝
-0.004321	之人 的 佩玉 结
-0.004321	正阳门 瓮 城内 的
-0.004321	正式 签约 后 </s>
-0.004321	正巧 是 美芳 去
-0.004321	斟茶 或者 低头 做
-0.004321	这是 回良玉 等 与
-0.004321	这个 发簪 是 你的
-0.004321	这幅 静谧 哀戚 的
-0.004321	这 六和 的 和睦
-0.004321	赵子龙 出镜 场面 超多
-0.004321	兆示 旱涝 丰 歉
-0.004321	找到 西山区 碧 鸡
-0.004321	朝 岸上 欢叫 </s>
-0.004321	张学友 办公 芝麻开门 给
-0.004321	张廷 谔 用 救济款
-0.004321	张大民 那样 没事 偷着乐
-0.004321	蘸 辣椒酱 吃了 两颗
-0.004321	站前 两轮 中有 上佳
-0.004321	怎么 那么 多台 放
-0.004321	则 安装 原位 不变
-0.004321	在台湾 南投县 访问 时
-0.004321	在内地 套现 逾 四亿
-0.004321	在建 的 文昌 滨海
-0.004321	在第 十七 代 阁
-0.004321	在此 开办 宏恩 幼稚园
-0.004321	再次 将 科威尔 的
-0.004321	灾害 频发 的 县
-0.004321	咋 原版 移植 成
-0.004321	杂技 空山 竹影 屏幕上
-0.004321	郓城县 宋 家村 人氏
-0.004321	允诺 捐助 埔里 </s>
-0.004321	云和 浓积云 中有 强烈
-0.004321	月 与 中国 奥组委
-0.004321	原来 的 民庭 副庭长
-0.004321	原版 移植 成 活人
-0.004321	郁 的 能 形容
-0.004321	语 柳 回 信息
-0.004321	余党 于 洛水 畔
-0.004321	于 洛水 畔 一带
-0.004321	又 帮 屠夫 拉
-0.004321	有着 厚厚 坐垫 软软
-0.004321	有勇无谋 的 一介 武夫
-0.004321	游鱼 众多 的 八
-0.004321	尤 伦斯 半年 在内地
-0.004321	永信 和 张 景
-0.004321	永葆 这 六和 的
-0.004321	永 嗣 再次 将
-0.004321	勇猛 号 航母 </s>
-0.004321	影迷 所列 十佳 影片
-0.004321	英军 像 疯了 一样
-0.004321	银屏 牡丹 能 兆示
-0.004321	银 毫 等 名茶
-0.004321	阴道 分娩 儿 一般
-0.004321	阴曹 判官 放回 阳世
-0.004321	因为 另外 一名 中卫
-0.004321	因公 未 参加 会议
-0.004321	译 电 科科长 李宁玉
-0.004321	易地 补 防 </s>
-0.004321	弈 剑 听雨 阁
-0.004321	移植 成 活人 取
-0.004321	一株 青翠欲滴 的 薄荷
-0.004321	一周 由 申奥 专家
-0.004321	一张 有着 厚厚 坐垫
-0.004321	一夜 急行军 赶到 目的地
-0.004321	一名 中卫 可以 很轻
-0.004321	一股 彻骨 的 凉意
-0.004321	一个 旱涝 灾害 频发
-0.004321	一般 来讲 情商 要比
-0.004321	页 朱 先 龙
-0.004321	也是 一个 旱涝 灾害
-0.004321	要做 以 仁爱 思想
-0.004321	要像 贫嘴 张大民 那样
-0.004321	要比 剖 腹 产儿
-0.004321	杨家 坳 乡 下官
-0.004321	杨 金花 的人 不仅
-0.004321	燕山 响水 湖 执白
-0.004321	烟台 名妓 蔼 如
-0.004321	雅 停 芳草 聊斋
-0.004321	讯 旅游 搜索 机票
-0.004321	雪山 第二 势力 凌霄城
-0.004321	玄 鉴 为 度
-0.004321	漩 与 涡流 </s>
-0.004321	轩辕 帮 余党 于
-0.004321	续 及 鲜卑 人
-0.004321	徐浩 因公 未 参加
-0.004321	袖口 或 裤脚 管
-0.004321	熊 取 胆 咋
-0.004321	信 独闯 中南海 为父
-0.004321	心仪 之人 的 佩玉
-0.004321	小姐 俺家 机顶盒 坏了
-0.004321	小将 孙 心悦 </s>
-0.004321	向来 以 打狗棒 法
-0.004321	像 疯了 一样 朝
-0.004321	响水 湖 执白 中盘
-0.004321	乡 下官 阡 村
-0.004321	线上 勾 划出 灵魂
-0.004321	线 卫 德里克 </s>
-0.004321	县县 长龙 弘 等
-0.004321	弦 线上 勾 划出
-0.004321	先生 的 宠妃 武
-0.004321	先 龙 打电话 给
-0.004321	下联 为 室 雅
-0.004321	下官 阡 村 路口
-0.004321	西山区 碧 鸡 凤凰
-0.004321	西湖 龙井 铁观音 茉莉
-0.004321	犀牛 奖 中 低音
-0.004321	昔日 林草 茂密 游鱼
-0.004321	武后 派兵 追逐 轩辕
-0.004321	武 惠 妃 女士
-0.004321	吾友 李隆基 先生 的
-0.004321	我与 梦露 的 一周
-0.004321	瓮中捉鳖 是个 成语 </s>
-0.004321	文昌 滨海 旅游 公路
-0.004321	温尼 伯格 市 南郊
-0.004321	魏 师傅 给 建筑队
-0.004321	未 参加 会议 </s>
-0.004321	位于 曼尼 托 巴
-0.004321	伪军 军机处 译 电
-0.004321	韦恩 斯坦 公司 发行
-0.004321	为核心 的 忠孝 孝悌
-0.004321	王五 电信 芝麻开门 给
-0.004321	万宝龙 表厂 的 工匠
-0.004321	湾 海盗 队 线
-0.004321	脱下 的 棉袄 盖
-0.004321	托 巴 省会 温尼
-0.004321	涂在 安徽阜阳 农 民院
-0.004321	屠夫 拉 牛 腿
-0.004321	偷着乐 只需要 默默地 看着她
-0.004321	同船 的 英军 像
-0.004321	停 芳草 聊斋 堪比
-0.004321	亭 的 率领 下
-0.004321	听雨 阁 在第 十七
-0.004321	铁观音 茉莉 银 毫
-0.004321	铁 帅 在 候机厅
-0.004321	田林 县县 长龙 弘
-0.004321	天津市 的 花鸟鱼虫 市场
-0.004321	天湖 人对 火箭 比分
-0.004321	套现 逾 四亿 </s>
-0.004321	唐 奇 前 坦帕
-0.004321	坦帕 湾 海盗 队
-0.004321	弹药罪 和 故意 损坏
-0.004321	踏 碎 了 多少
-0.004321	它 位于 曼尼 托
-0.004321	她 所具 有的 大恩大德
-0.004321	他到 潢川县 城北 给
-0.004321	所列 十佳 影片 大全
-0.004321	所具 有的 大恩大德 </s>
-0.004321	所部 经 一夜 急行军
-0.004321	损坏 财物罪 被 公
-0.004321	碎 了 多少 帝
-0.004321	诉至 法院 一事 </s>
-0.004321	酥脆 而 易于 咀嚼
-0.004321	苏州 到 南京 的
-0.004321	搜狗 地图 搜索 公交车
-0.004321	宋 家村 人氏 </s>
-0.004321	嗣 再次 将 科威尔
-0.004321	斯坦 公司 发行 </s>
-0.004321	思想 为核心 的 忠孝
-0.004321	思南县 杨家 坳 乡
-0.004321	思聪 给 张 语
-0.004321	说服 阴曹 判官 放回
-0.004321	说法 只是 民间 传闻
-0.004321	顺着 头发 梳头 </s>
-0.004321	帅 在 候机厅 独自
-0.004321	熟悉 杨 金花 的人
-0.004321	叔侄 情深 更是 逛
-0.004321	叔 从 原来 的
-0.004321	是否 有 沙尘 </s>
-0.004321	市场 和 各种 早市
-0.004321	室友 都把 脱下 的
-0.004321	势力 凌霄城 城主 </s>
-0.004321	使得 果仁 口感 更加
-0.004321	石家庄 唐山 秦皇岛 </s>
-0.004321	时 允诺 捐助 埔里
-0.004321	十一 长 假的 天气
-0.004321	十七 代 阁 主
-0.004321	十佳 影片 大全 </s>
-0.004321	师傅 给 建筑队 当过
-0.004321	失去了 茶褐色 中特 有的
-0.004321	失落 的 铁 帅
-0.004321	失禁 的 老人 换洗
-0.004321	胜 清风 迷 烟
-0.004321	省会 温尼 伯格 市
-0.004321	生俘 忠义 的 冀州
-0.004321	升降 气 漩 与
-0.004321	肾 在台湾 南投县 访问
-0.004321	神 僧 玄 鉴
-0.004321	申奥 专家 韦恩 斯坦
-0.004321	设计 的 菜田 开沟
-0.004321	邵 续 及 鲜卑
-0.004321	上任 不久 便 不幸
-0.004321	上佳 表现 的 格力
-0.004321	衫裤 不得 从 袖口
-0.004321	僧 玄 鉴 为
-0.004321	三 个 步骤 中
-0.004321	洒 段 起点 </s>
-0.004321	瑞士 里诺 万宝龙 表厂
-0.004321	软软 的 沙发 </s>
-0.004321	如飞 在 吉他 弦
-0.004321	日升 的 叔侄 情深
-0.004321	日 的 第六届 户外
-0.004321	仁爱 思想 为核心 的
-0.004321	人像 局部 大特写 张力
-0.004321	人对 火箭 比分 是多少
-0.004321	人 段 匹 砥
-0.004321	绕 长安 胜景 </s>
-0.004321	泉眼 冒着 热水 </s>
-0.004321	泉边 发现 泉眼 冒着
-0.004321	去 保安 室 的
-0.004321	邱爱华 和 老将 巫
-0.004321	晴 曾 思聪 给
-0.004321	情深 更是 逛 遍了
-0.004321	情商 要比 剖 腹
-0.004321	青翠欲滴 的 薄荷 在
-0.004321	清汤 炖煮 的 牛肉丸
-0.004321	清风 迷 烟 </s>
-0.004321	强烈 的 升降 气
-0.004321	歉 的 说法 只是
-0.004321	前 坦帕 湾 海盗
-0.004321	阡 村 路口 </s>
-0.004321	千千 阙 歌 </s>
-0.004321	气 漩 与 涡流
-0.004321	绮丽 物产 丰饶 </s>
-0.004321	奇 前 坦帕 湾
-0.004321	其 鬼魂 说服 阴曹
-0.004321	剖 腹 产儿 高
-0.004321	平 州 刺史 崔
-0.004321	屏幕上 出现 碧绿 滴翠
-0.004321	频发 的 县 </s>
-0.004321	贫嘴 张大民 那样 没事
-0.004321	拼贴 历史 古迹 林
-0.004321	佩玉 结 缀 罗
-0.004321	判官 放回 阳世 </s>
-0.004321	派兵 追逐 轩辕 帮
-0.004321	拍摄 的 人像 局部
-0.004321	偶尔 摆 有 一张
-0.004321	女子 为 心仪 之人
-0.004321	女士 不幸 辞世 </s>
-0.004321	怒骂 急湍 湍 </s>
-0.004321	浓积云 中有 强烈 的
-0.004321	农机局 职大 毕业生 李永祥
-0.004321	农 民院 墙上 的
-0.004321	牛 腿 打下手 </s>
-0.004321	宁儿 怀揣 告状 信
-0.004321	年度 金 犀牛 奖
-0.004321	年 全年 财报 </s>
-0.004321	你的 吗 形容 水
-0.004321	嫩黄 的 鸡皮 加上
-0.004321	难道 要像 贫嘴 张大民
-0.004321	南投县 访问 时 允诺
-0.004321	南京 的 火车票 </s>
-0.004321	南 亭 的 率领
-0.004321	那样 没事 偷着乐 只需要
-0.004321	那么 多台 放 一样
-0.004321	木梳 或 猪鬃 毛刷
-0.004321	慕容 鲜卑 击溃 </s>
-0.004321	牡丹 能 兆示 旱涝
-0.004321	默默地 看着她 斟茶 或者
-0.004321	莫 茂 庆 </s>
-0.004321	茉莉 银 毫 等
-0.004321	命令 返回 更改 密码
-0.004321	明天 从 苏州 到
-0.004321	名妓 蔼 如 相识
-0.004321	民院 墙上 的 </s>
-0.004321	民庭 副庭长 的 位置
-0.004321	棉毛 衫裤 不得 从
-0.004321	棉袄 盖 在 他的
-0.004321	米原康正 拍摄 的 人像
-0.004321	梦露 的 一周 由
-0.004321	孟 梓 搜索 莫
-0.004321	门楼 两侧 是 壮丽
-0.004321	美芳 去 保安 室
-0.004321	没事 偷着乐 只需要 默默地
-0.004321	茂密 游鱼 众多 的
-0.004321	毛刷 顺着 头发 梳头
-0.004321	毛 凤 岚 孟
-0.004321	曼尼 托 巴 省会
-0.004321	马蹄 踏 碎 了
-0.004321	马赛克 拼贴 历史 古迹
-0.004321	吗 形容 水 盛
-0.004321	洛水 畔 一带 </s>
-0.004321	伦斯 半年 在内地 套现
-0.004321	掠 飞驰 的 马蹄
-0.004321	陆 南 亭 的
-0.004321	泸定县 境内 飞 夺
-0.004321	蝼蚁 就 用手 逮
-0.004321	楼上 西湖 龙井 铁观音
-0.004321	楼 至 昌 洒
-0.004321	龙井 铁观音 茉莉 银
-0.004321	龙湖 分局 的 李祥
-0.004321	六和 的 和睦 互敬
-0.004321	柳 回 信息 </s>
-0.004321	刘若英 的 后来 芝麻开门
-0.004321	另外 一名 中卫 可以
-0.004321	林草 茂密 游鱼 众多
-0.004321	林 本源 园 邸
-0.004321	聊斋 堪比 红楼 蘸
-0.004321	两名 老乡 李 永信
-0.004321	两轮 中有 上佳 表现
-0.004321	两颗 清汤 炖煮 的
-0.004321	两侧 是 壮丽 考究
-0.004321	凉意 从 脚底 上达
-0.004321	怜 晴 曾 思聪
-0.004321	立誓 永葆 这 六和
-0.004321	立 了 胡 亥
-0.004321	历史 古迹 林 本源
-0.004321	力 吉 别 走到
-0.004321	里诺 万宝龙 表厂 的
-0.004321	李永祥 设计 的 菜田
-0.004321	李祥 局长 带 人去
-0.004321	李隆基 先生 的 宠妃
-0.004321	李 永信 和 张
-0.004321	老乡 李 永信 和
-0.004321	老人 换洗 尿布 </s>
-0.004321	老将 巫 丹 </s>
-0.004321	岚 孟 梓 搜索
-0.004321	来讲 情商 要比 剖
-0.004321	辣椒酱 吃了 两颗 清汤
-0.004321	拉 牛 腿 打下手
-0.004321	喇叭 则 安装 原位
-0.004321	酷 讯 旅游 搜索
-0.004321	裤脚 管 露出 </s>
-0.004321	口感 更加 酥脆 而
-0.004321	空山 竹影 屏幕上 出现
-0.004321	克林 找到 西山区 碧
-0.004321	可以 很轻 易地 补
-0.004321	可能 正巧 是 美芳
-0.004321	科威尔 的 脚下 球
-0.004321	考究 的 大理石 门柱
-0.004321	看着她 斟茶 或者 低头
-0.004321	堪比 红楼 蘸 辣椒酱
-0.004321	开办 宏恩 幼稚园 </s>
-0.004321	军机处 译 电 科科长
-0.004321	军功 爵 程序 的
-0.004321	绝对 不是 有勇无谋 的
-0.004321	爵 程序 的 三
-0.004321	局长 带 人去 现场
-0.004321	局部 大特写 张力 十足
-0.004321	居心叵测 的 慕容 鲜卑
-0.004321	救济款 在此 开办 宏恩
-0.004321	就 用手 逮 </s>
-0.004321	静谧 哀戚 的 佛祖
-0.004321	境内 飞 夺 泸定
-0.004321	经 一夜 急行军 赶到
-0.004321	进 正阳门 瓮 城内
-0.004321	金花 的人 不仅 被
-0.004321	金 犀牛 奖 中
-0.004321	节目 打开 搜狗 地图
-0.004321	结 缀 罗 缨
-0.004321	接应 二传 是 邱爱华
-0.004321	接 在建 的 文昌
-0.004321	脚下 球 封堵 </s>
-0.004321	脚底 上达 脑门 </s>
-0.004321	教师 的 父亲 送
-0.004321	降龙 十八掌 威震天下 </s>
-0.004321	蒋氏 夫妇 在 官邸
-0.004321	奖 中 低音 喇叭
-0.004321	将 科威尔 的 脚下
-0.004321	鉴 为 度 化
-0.004321	见到 蝗虫 蝼蚁 就
-0.004321	建筑队 当过 小工 </s>
-0.004321	剑 听雨 阁 在第
-0.004321	捡到 的 这个 发簪
-0.004321	监事 张 宝鼎 徐浩
-0.004321	假意 立 了 胡
-0.004321	家 尤 伦斯 半年
-0.004321	加上 白色 鸡 块
-0.004321	冀州 刺史 邵 续
-0.004321	疾 掠 飞驰 的
-0.004321	急行军 赶到 目的地 </s>
-0.004321	吉他 弦 线上 勾
-0.004321	吉 别 走到 泉边
-0.004321	及 鲜卑 人 段
-0.004321	鸡皮 加上 白色 鸡
-0.004321	积雨 云和 浓积云 中有
-0.004321	机顶盒 坏了 怎么 那么
-0.004321	或者 低头 做 针线
-0.004321	火箭 比分 是多少 </s>
-0.004321	活人 取 肾 在台湾
-0.004321	活 熊 取 胆
-0.004321	惠 妃 女士 不幸
-0.004321	回良玉 等 与 禅
-0.004321	黄杨 木梳 或 猪鬃
-0.004321	黄 蒿 梁 喷云吐雾
-0.004321	蝗虫 蝼蚁 就 用手
-0.004321	潢川县 城北 给 当
-0.004321	坏了 怎么 那么 多台
-0.004321	怀揣 告状 信 独闯
-0.004321	化 雪山 第二 势力
-0.004321	花鸟鱼虫 市场 和 各种
-0.004321	户外 年度 金 犀牛
-0.004321	胡适 摆下 寿宴 </s>
-0.004321	胡军 扮演 的 常山
-0.004321	胡 亥 的 侄儿
-0.004321	湖 执白 中盘 胜
-0.004321	后来 芝麻开门 搜索 最近
-0.004321	厚厚 坐垫 软软 的
-0.004321	候机厅 独自 抽烟 解闷
-0.004321	红楼 蘸 辣椒酱 吃了
-0.004321	弘 等 主要领导 靠前
-0.004321	很轻 易地 补 防
-0.004321	赫赫 的 埃塞克斯 勇猛
-0.004321	毫 等 名茶 </s>
-0.004321	蒿 梁 喷云吐雾 </s>
-0.004321	亥 的 侄儿 子婴
-0.004321	海盗 队 线 卫
-0.004321	还有 他的 两名 老乡
-0.004321	果仁 口感 更加 酥脆
-0.004321	贵州省 思南县 杨家 坳
-0.004321	鬼魂 说服 阴曹 判官
-0.004321	珪 上任 不久 便
-0.004321	逛 遍了 天津市 的
-0.004321	光文 所部 经 一夜
-0.004321	观音庙 内 拈香 </s>
-0.004321	官邸 为 胡适 摆下
-0.004321	关于 段芝贵 与 段
-0.004321	拐弯处 偶尔 摆 有
-0.004321	故意 损坏 财物罪 被
-0.004321	古迹 林 本源 园
-0.004321	古代 女子 为 心仪
-0.004321	古村 群众 合影 </s>
-0.004321	勾 划出 灵魂 </s>
-0.004321	工商局 龙湖 分局 的
-0.004321	工匠 精心 镶制 </s>
-0.004321	功绩 赫赫 的 埃塞克斯
-0.004321	公路 龙 楼 至
-0.004321	公 诉至 法院 一事
-0.004321	更是 逛 遍了 天津市
-0.004321	更加 酥脆 而 易于
-0.004321	个 步骤 中 </s>
-0.004321	格力 小将 孙 心悦
-0.004321	告状 信 独闯 中南海
-0.004321	盖 在 他的 被子
-0.004321	丐帮 向来 以 打狗棒
-0.004321	腹 产儿 高 </s>
-0.004321	父亲 送 衣裳 </s>
-0.004321	副庭长 的 位置 </s>
-0.004321	夫妇 在 官邸 为
-0.004321	佛祖 涅槃 图上 </s>
-0.004321	凤凰 社区卫生 服务站 </s>
-0.004321	凤 岚 孟 梓
-0.004321	风光 绮丽 物产 丰饶
-0.004321	疯了 一样 朝 岸上
-0.004321	丰 歉 的 说法
-0.004321	分娩 儿 一般 来讲
-0.004321	分局 的 李祥 局长
-0.004321	飞驰 的 马蹄 踏
-0.004321	飞 夺 泸定 铁索桥
-0.004321	妃 女士 不幸 辞世
-0.004321	放 一样 的 节目
-0.004321	访问 时 允诺 捐助
-0.004321	仿佛 是 种了 一株
-0.004321	芳草 聊斋 堪比 红楼
-0.004321	返回 更改 密码 </s>
-0.004321	法 和 降龙 十八掌
-0.004321	发现 泉眼 冒着 热水
-0.004321	二传 是 邱爱华 和
-0.004321	儿 一般 来讲 情商
-0.004321	谔 用 救济款 在此
-0.004321	夺 泸定 铁索桥 </s>
-0.004321	多台 放 一样 的
-0.004321	多少 帝 帜 王
-0.004321	炖煮 的 牛肉丸 </s>
-0.004321	队 线 卫 德里克
-0.004321	段芝贵 与 段 日升
-0.004321	断 不悔 绝对 不是
-0.004321	度 化 雪山 第二
-0.004321	独自 抽烟 解闷 </s>
-0.004321	独闯 中南海 为父 伸冤
-0.004321	都把 脱下 的 棉袄
-0.004321	电信 芝麻开门 给 老赵
-0.004321	电 科科长 李宁玉 </s>
-0.004321	第六届 户外 年度 金
-0.004321	第二 势力 凌霄城 城主
-0.004321	帝 帜 王 旗
-0.004321	地图 搜索 公交车 </s>
-0.004321	滴翠 的 竹子 </s>
-0.004321	低音 喇叭 则 安装
-0.004321	低头 做 针线 </s>
-0.004321	的人 不仅 被 她
-0.004321	岛 永 嗣 再次
-0.004321	导致 椿 叶 失去了
-0.004321	当 教师 的 父亲
-0.004321	淡绿 泛 青色 </s>
-0.004321	胆 咋 原版 移植
-0.004321	带 人去 现场 </s>
-0.004321	代 阁 主 陆
-0.004321	大小便 失禁 的 老人
-0.004321	大特写 张力 十足 </s>
-0.004321	大藏 家 尤 伦斯
-0.004321	打狗棒 法 和 降龙
-0.004321	崔 毖 为 居心叵测
-0.004321	丛台区 工商局 龙湖 分局
-0.004321	椿 叶 失去了 茶褐色
-0.004321	川 岛 永 嗣
-0.004321	出现 碧绿 滴翠 的
-0.004321	出镜 场面 超多 </s>
-0.004321	宠妃 武 惠 妃
-0.004321	吃了 两颗 清汤 炖煮
-0.004321	程序 的 三 个
-0.004321	成 活人 取 肾
-0.004321	城内 的 观音庙 内
-0.004321	城北 给 当 教师
-0.004321	陈 克林 找到 西山区
-0.004321	彻骨 的 凉意 从
-0.004321	长龙 弘 等 主要领导
-0.004321	常山 赵子龙 出镜 场面
-0.004321	昌 洒 段 起点
-0.004321	禅 古村 群众 合影
-0.004321	茶褐色 中特 有的 淡绿
-0.004321	曾 思聪 给 张
-0.004321	菜田 开沟 机 </s>
-0.004321	菜 瓮 萍水相逢 </s>
-0.004321	财物罪 被 公 诉至
-0.004321	不是 有勇无谋 的 一介
-0.004321	不久 便 不幸 染病
-0.004321	不仅 被 她 所具
-0.004321	不悔 绝对 不是 有勇无谋
-0.004321	不过 川 岛 永
-0.004321	不得 从 袖口 或
-0.004321	伯格 市 南郊 </s>
-0.004321	滨海 旅游 公路 龙
-0.004321	别 走到 泉边 发现
-0.004321	表现 的 格力 小将
-0.004321	表厂 的 工匠 精心
-0.004321	遍了 天津市 的 花鸟鱼虫
-0.004321	便 不幸 染病 身亡
-0.004321	碧绿 滴翠 的 竹子
-0.004321	碧 鸡 凤凰 社区卫生
-0.004321	毖 为 居心叵测 的
-0.004321	毕业生 李永祥 设计 的
-0.004321	比利时 大藏 家 尤
-0.004321	本源 园 邸 </s>
-0.004321	本 站前 两轮 中有
-0.004321	被人 涂在 安徽阜阳 农
-0.004321	焙烤 后 使得 果仁
-0.004321	北京今天 是否 有 沙尘
-0.004321	北京 天津 河北 </s>
-0.004321	宝鼎 徐浩 因公 未
-0.004321	保安 室 的 那段
-0.004321	保 叔 从 原来
-0.004321	薄荷 在 心田 </s>
-0.004321	扮演 的 常山 赵子龙
-0.004321	半年 在内地 套现 逾
-0.004321	办公 芝麻开门 给 张信哲
-0.004321	颁赐 军功 爵 程序
-0.004321	摆 有 一张 有着
-0.004321	白色 鸡 块 </s>
-0.004321	巴 省会 温尼 伯格
-0.004321	八 水 绕 长安
-0.004321	奥组委 正式 签约 后
-0.004321	敖 力 吉 别
-0.004321	坳 乡 下官 阡
-0.004321	俺家 机顶盒 坏了 怎么
-0.004321	安装 原位 不变 </s>
-0.004321	安徽阜阳 农 民院 墙上
-0.004321	蔼 如 相识 </s>
-0.004321	埃塞克斯 勇猛 号 航母
-0.004321	哀戚 的 佛祖 涅槃
-0.004321	<s> 给 大小便 失禁
-0.004321	<s> 在 这幅 静谧
-0.004321	<s> 在 泸定县 境内
-0.004321	<s> 在 本 站前
-0.004321	<s> 在 颁赐 军功
-0.002166	<s> 打开 遥控器 设置
-0.176814	<s> 月光 宝盒 打开
-0.778874	<s> 月光 宝盒 打开浏览器
-0.778874	<s> 月光 宝盒 </s>
-0.301753	<s> 语音 助手 我
-0.301753	<s> 语音 助手 发短信
-0.004321	<s> 是 被人 涂在
-0.778874	<s> 你好 蓝精灵 今天
-0.477844	<s> 你好 蓝精灵 查看
-0.778874	<s> 你好 蓝精灵 昨
-0.778874	<s> 你好 蓝精灵 北京今天
-0.778874	<s> 你好 蓝精灵 </s>
-0.004321	<s> 芝麻开门 给 小张
-0.004321	<s> 芝麻开门 我想吃 湘菜
-0.004321	<s> 与 烟台 名妓
-0.004321	<s> 急湍 急湍 湍
-0.004321	<s> 急湍 湍 蓬
-0.004321	<s> 我 捡到 的
-0.004321	<s> 以 马赛克 拼贴
-0.004321	<s> 叶 祖 珪
-0.004321	<s> 叶 光文 所部
-0.004321	<s> 余 页 朱
-0.004321	<s> 余 怜 晴
-0.004321	<s> 由 瑞士 里诺
-0.004321	<s> 用 黄杨 木梳
-0.004321	<s> 市 农机局 职大
-0.004321	<s> 喷云吐雾 急湍 </s>
-0.004321	<s> 发簪 吐絮 </s>
-0.004321	<s> 而 焙烤 后
-0.004321	<s> 祖居 郓城县 宋
-0.004321	<s> 自古 风光 绮丽
-0.004321	<s> 指法 如飞 在
-0.004321	<s> 这是 回良玉 等
-0.004321	<s> 张廷 谔 用
-0.004321	<s> 杂技 空山 竹影
-0.004321	<s> 月 与 中国
-0.004321	<s> 郁 的 能
-0.004321	<s> 又 帮 屠夫
-0.004321	<s> 影迷 所列 十佳
-0.004321	<s> 银屏 牡丹 能
-0.004321	<s> 阴道 分娩 儿
-0.004321	<s> 因为 另外 一名
-0.004321	<s> 弈 剑 听雨
-0.004321	<s> 一股 彻骨 的
-0.004321	<s> 也是 一个 旱涝
-0.004321	<s> 要做 以 仁爱
-0.004321	<s> 燕山 响水 湖
-0.004321	<s> 小姐 俺家 机顶盒
-0.004321	<s> 下联 为 室
-0.004321	<s> 昔日 林草 茂密
-0.004321	<s> 武后 派兵 追逐
-0.004321	<s> 吾友 李隆基 先生
-0.004321	<s> 我与 梦露 的
-0.004321	<s> 瓮中捉鳖 是个 成语
-0.004321	<s> 魏 师傅 给
-0.004321	<s> 伪军 军机处 译
-0.004321	<s> 违拗 送丧 </s>
-0.004321	<s> 同船 的 英军
-0.004321	<s> 田林 县县 长龙
-0.004321	<s> 唐 奇 前
-0.004321	<s> 弹药罪 和 故意
-0.004321	<s> 它 位于 曼尼
-0.004321	<s> 他到 潢川县 城北
-0.004321	<s> 熟悉 杨 金花
-0.004321	<s> 室友 都把 脱下
-0.004321	<s> 石家庄 唐山 秦皇岛
-0.004321	<s> 失落 的 铁
-0.004321	<s> 生俘 忠义 的
-0.004321	<s> 神 僧 玄
-0.004321	<s> 日 的 第六届
-0.004321	<s> 其 鬼魂 说服
-0.004321	<s> 平 州 刺史
-0.004321	<s> 噼啪 囊空如洗 </s>
-0.004321	<s> 怒骂 急湍 湍
-0.004321	<s> 宁儿 怀揣 告状
-0.004321	<s> 年 全年 财报
-0.004321	<s> 嫩黄 的 鸡皮
-0.004321	<s> 难道 要像 贫嘴
-0.004321	<s> 命令 返回 更改
-0.004321	<s> 明天 从 苏州
-0.004321	<s> 棉毛 衫裤 不得
-0.004321	<s> 米原康正 拍摄 的
-0.004321	<s> 门楼 两侧 是
-0.004321	<s> 毛 凤 岚
-0.004321	<s> 楼上 西湖 龙井
-0.004321	<s> 立誓 永葆 这
-0.004321	<s> 酷 讯 旅游
-0.004321	<s> 可能 正巧 是
-0.004321	<s> 经典 美国大片 </s>
-0.004321	<s> 进 正阳门 瓮
-0.004321	<s> 金簪 铁算盘 </s>
-0.004321	<s> 接应 二传 是
-0.004321	<s> 接 在建 的
-0.004321	<s> 蒋氏 夫妇 在
-0.004321	<s> 见到 蝗虫 蝼蚁
-0.004321	<s> 监事 张 宝鼎
-0.004321	<s> 假意 立 了
-0.004321	<s> 疾 掠 飞驰
-0.004321	<s> 积雨 云和 浓积云
-0.004321	<s> 活 熊 取
-0.004321	<s> 黄 蒿 梁
-0.004321	<s> 荒谬 荒谬绝伦 </s>
-0.004321	<s> 胡军 扮演 的
-0.004321	<s> 还有 他的 两名
-0.004321	<s> 贵州省 思南县 杨家
-0.004321	<s> 关于 段芝贵 与
-0.004321	<s> 拐弯处 偶尔 摆
-0.004321	<s> 乖谬 乳儿 </s>
-0.004321	<s> 古代 女子 为
-0.004321	<s> 功绩 赫赫 的
-0.004321	<s> 丐帮 向来 以
-0.004321	<s> 仿佛 是 种了
-0.004321	<s> 断 不悔 绝对
-0.004321	<s> 导致 椿 叶
-0.004321	<s> 丛台区 工商局 龙湖
-0.004321	<s> 陈 克林 找到
-0.004321	<s> 菜 瓮 萍水相逢
-0.004321	<s> 不过 川 岛
-0.004321	<s> 比利时 大藏 家
-0.004321	<s> 北京 天津 河北
-0.004321	<s> 保 叔 从
-0.004321	<s> 敖 力 吉

\end\
